{"learner":{"attributes":{"best_iteration":"117","best_score":"0.24555119704818368"},"feature_names":["time_since_last","time_since_last_cg","time_since_last_ic","time_since_first","strike_count_5min","strike_count_10min","strike_count_30min","rate_5min","rate_10min","rate_30min","std_interarrival","mean_dist","trend_dist","angular_spread","prop_ic","mean_amplitude","month","hour","month_sin","month_cos","hour_sin","hour_cos","airport_encoded"],"feature_types":["float","float","float","float","int","int","int","float","float","float","float","float","float","float","float","float","int","int","float","float","float","float","int"],"gradient_booster":{"model":{"cats":{"enc":[],"feature_segments":[],"sorted_idx":[]},"gbtree_model_param":{"num_parallel_tree":"1","num_trees":"168"},"iteration_indptr":[0,1,2,3,4,5,6,7,8,9,10,11,12,13,14,15,16,17,18,19,20,21,22,23,24,25,26,27,28,29,30,31,32,33,34,35,36,37,38,39,40,41,42,43,44,45,46,47,48,49,50,51,52,53,54,55,56,57,58,59,60,61,62,63,64,65,66,67,68,69,70,71,72,73,74,75,76,77,78,79,80,81,82,83,84,85,86,87,88,89,90,91,92,93,94,95,96,97,98,99,100,101,102,103,104,105,106,107,108,109,110,111,112,113,114,115,116,117,118,119,120,121,122,123,124,125,126,127,128,129,130,131,132,133,134,135,136,137,138,139,140,141,142,143,144,145,146,147,148,149,150,151,152,153,154,155,156,157,158,159,160,161,162,163,164,165,166,167,168],"tree_info":[0,0,0,0,0,0,0,0,0,0,0,0,0,0,0,0,0,0,0,0,0,0,0,0,0,0,0,0,0,0,0,0,0,0,0,0,0,0,0,0,0,0,0,0,0,0,0,0,0,0,0,0,0,0,0,0,0,0,0,0,0,0,0,0,0,0,0,0,0,0,0,0,0,0,0,0,0,0,0,0,0,0,0,0,0,0,0,0,0,0,0,0,0,0,0,0,0,0,0,0,0,0,0,0,0,0,0,0,0,0,0,0,0,0,0,0,0,0,0,0,0,0,0,0,0,0,0,0,0,0,0,0,0,0,0,0,0,0,0,0,0,0,0,0,0,0,0,0,0,0,0,0,0,0,0,0,0,0,0,0,0,0,0,0,0,0,0,0],"trees":[{"base_weights":[2.4752447E-3,1.4293245E0,-1.7073197E0,1.6474612E0,3.7563252E-1,-8.887534E-1,-1.9163296E0,1.2075893E0,1.7615858E0,-8.87169E-2,5.9312737E-1,-9.434112E-1,9.228943E-2,-1.5982387E0,-2.0020344E0,1.8745058E0,1.1335353E0,1.806223E0,1.3935889E0,1.7119886E0,-1.8832427E-1,5.220405E-1,9.322718E-2,-4.0482134E-1,-1.1006538E0,-1.6181102E0,8.6459436E-2,-1.8905666E0,-2.0657578E0,9.3938686E-2,3.0064985E-2,4.6481362E-1,1.2688031E0,1.6237996E0,1.8304888E0,7.1487004E-1,1.4484203E0,9.160342E-2,7.356848E-1,-5.8458112E-2,-1.1224236E0,9.309328E-1,2.6762614E-1,8.677488E-2,-4.5685533E-1,-1.3513377E0,-8.382076E-1,-1.7044795E0,-1.3278854E0,-1.8945312E0,6.912192E-2,-1.01097845E-1,-1.0501653E-1,6.294783E-3,3.673972E-2,5.9935786E-2,9.3016766E-2,8.140572E-2,1.761177E-2,9.2346005E-2,8.559487E-2,4.443715E-2,-4.2876724E-2,7.975405E-2,6.344421E-2,-1.4468257E-2,5.3316128E-2,1.0673355E-2,-2.185578E-2,-5.7108602E-3,-7.01214E-2,3.7096612E-2,6.0919534E-2,2.2883214E-2,1.9386577E-3,-3.699077E-2,-1.0821674E-2,-6.164245E-2,-8.961251E-2,-3.2133788E-2,-5.3284477E-2,-8.220548E-2,-9.432029E-2,-3.1927027E-2,-6.8103045E-2,-9.285956E-2,-1.0374113E-1],"categories":[],"categories_nodes":[],"categories_segments":[],"categories_sizes":[],"default_left":[0,0,0,0,0,0,0,0,0,0,0,0,0,0,0,0,0,0,0,0,0,0,0,0,0,0,0,0,0,0,0,0,0,0,0,0,0,0,0,0,0,0,0,0,0,0,0,0,0,0,0,0,0,0,0,0,0,0,0,0,0,0,0,0,0,0,0,0,0,0,0,0,0,0,0,0,0,0,0,0,0,0,0,0,0,0,0],"id":0,"left_children":[1,3,5,7,9,11,13,15,17,19,21,23,-1,25,27,29,31,33,35,37,39,41,-1,43,45,47,-1,49,51,-1,-1,53,55,57,59,61,63,-1,65,67,69,71,73,-1,75,77,79,81,83,85,-1,-1,-1,-1,-1,-1,-1,-1,-1,-1,-1,-1,-1,-1,-1,-1,-1,-1,-1,-1,-1,-1,-1,-1,-1,-1,-1,-1,-1,-1,-1,-1,-1,-1,-1,-1,-1],"loss_changes":[6.117148E4,3.140959E3,1.9497656E3,5.6631445E2,2.3693866E2,3.4878015E2,2.4448047E2,1.13237305E2,1.4513477E2,1.3467564E2,1.4341016E2,1.9239636E2,0E0,1.306289E2,4.6902344E1,1.305542E-1,1.8981421E2,3.2496094E1,3.5313843E1,3.2667236E0,8.614714E1,1.5728049E2,0E0,5.827555E1,1.1478467E2,4.592285E1,0E0,3.6532227E1,2.6269531E0,0E0,0E0,3.245655E1,7.033154E1,4.6362305E0,1.0603516E1,2.1262516E1,2.1746338E1,0E0,2.335995E0,6.4447624E1,2.4312965E1,3.062967E1,4.064119E1,0E0,3.4173523E1,4.4783936E1,3.7718872E1,1.3130371E1,9.623291E0,1.3724609E1,0E0,0E0,0E0,0E0,0E0,0E0,0E0,0E0,0E0,0E0,0E0,0E0,0E0,0E0,0E0,0E0,0E0,0E0,0E0,0E0,0E0,0E0,0E0,0E0,0E0,0E0,0E0,0E0,0E0,0E0,0E0,0E0,0E0,0E0,0E0,0E0,0E0],"parents":[2147483647,0,0,1,1,2,2,3,3,4,4,5,5,6,6,7,7,8,8,9,9,10,10,11,11,13,13,14,14,15,15,16,16,17,17,18,18,19,19,20,20,21,21,23,23,24,24,25,25,27,27,28,28,31,31,32,32,33,33,34,34,35,35,36,36,38,38,39,39,40,40,41,41,42,42,44,44,45,45,46,46,47,47,48,48,49,49],"right_children":[2,4,6,8,10,12,14,16,18,20,22,24,-1,26,28,30,32,34,36,38,40,42,-1,44,46,48,-1,50,52,-1,-1,54,56,58,60,62,64,-1,66,68,70,72,74,-1,76,78,80,82,84,86,-1,-1,-1,-1,-1,-1,-1,-1,-1,-1,-1,-1,-1,-1,-1,-1,-1,-1,-1,-1,-1,-1,-1,-1,-1,-1,-1,-1,-1,-1,-1,-1,-1,-1,-1,-1,-1],"split_conditions":[3.95E0,1.8333334E0,7.75E0,4E0,4.2421824E-1,1.2633333E1,1.1783334E1,3.3333335E-2,1E0,1.8666667E0,8.85E0,5E0,9.228943E-2,1.6733334E1,1.7633333E1,9.966666E0,2.190406E-2,6E0,2.1251981E-1,1.6666668E-2,1.9E1,2.7166667E0,9.322718E-2,1.6666668E-2,7.3484695E-1,1.5710204E0,8.6459436E-2,2.2566668E1,2.31E1,9.3938686E-2,3.0064985E-2,2.0984869E-1,6.4E0,4.8715E1,5.833333E-1,4.7166667E0,1.6166667E0,9.160342E-2,1.406258E-1,3E0,2.7166667E0,1.8E1,3.1166666E0,8.677488E-2,5.874796E-1,4.8E1,6.1833334E0,2.4E1,1.6475853E0,2.3E1,6.912192E-2,-1.01097845E-1,-1.0501653E-1,6.294783E-3,3.673972E-2,5.9935786E-2,9.3016766E-2,8.140572E-2,1.761177E-2,9.2346005E-2,8.559487E-2,4.443715E-2,-4.2876724E-2,7.975405E-2,6.344421E-2,-1.4468257E-2,5.3316128E-2,1.0673355E-2,-2.185578E-2,-5.7108602E-3,-7.01214E-2,3.7096612E-2,6.0919534E-2,2.2883214E-2,1.9386577E-3,-3.699077E-2,-1.0821674E-2,-6.164245E-2,-8.961251E-2,-3.2133788E-2,-5.3284477E-2,-8.220548E-2,-9.432029E-2,-3.1927027E-2,-6.8103045E-2,-9.285956E-2,-1.0374113E-1],"split_indices":[0,0,0,4,10,1,0,1,0,1,1,1,0,1,0,2,10,4,10,1,5,1,0,1,10,10,0,1,1,0,0,13,1,15,0,1,1,0,10,0,1,6,0,0,10,6,0,6,10,6,0,0,0,0,0,0,0,0,0,0,0,0,0,0,0,0,0,0,0,0,0,0,0,0,0,0,0,0,0,0,0,0,0,0,0,0,0],"split_type":[0,0,0,0,0,0,0,0,0,0,0,0,0,0,0,0,0,0,0,0,0,0,0,0,0,0,0,0,0,0,0,0,0,0,0,0,0,0,0,0,0,0,0,0,0,0,0,0,0,0,0,0,0,0,0,0,0,0,0,0,0,0,0,0,0,0,0,0,0,0,0,0,0,0,0,0,0,0,0,0,0,0,0,0,0,0,0],"sum_hessian":[2.5072188E4,1.36670205E4,1.1405168E4,1.1322466E4,2.3445547E3,2.32089E3,9.084277E3,2.3348396E3,8.987626E3,7.480554E2,1.5964993E3,2.2760515E3,4.483849E1,1.9322898E3,7.151988E3,2.3091821E2,2.1039214E3,8.0118906E3,9.7573535E2,3.8361816E1,7.096936E2,1.513299E3,8.32003E1,5.151444E2,1.7609071E3,1.9213292E3,1.096052E1,2.6125894E3,4.539399E3,2.296727E2,1.2455136E0,3.5472226E2,1.7491992E3,9.485831E2,7.0633076E3,7.3983505E1,9.0175183E2,3.3379765E1,4.982054E0,6.240023E2,8.569133E1,5.794129E2,9.3388605E2,1.1458725E1,5.0368567E2,8.985135E2,8.623936E2,1.4769299E3,4.4439923E2,2.609849E3,2.74013E0,2.0286925E3,2.5107063E3,1.5793112E2,1.9679114E2,1.5666069E3,1.8259229E2,9.450957E2,3.487438E0,6.1909497E3,8.7235767E2,6.700863E1,6.974876E0,4.9197784E2,4.0977396E2,1.2455136E0,3.7365408E0,3.6344086E2,2.6056143E2,1.8931807E1,6.675953E1,3.5173303E2,2.2767989E2,5.0966415E2,4.2422192E2,2.3042001E2,2.732657E2,7.1118823E2,1.8732524E2,4.6582208E2,3.965715E2,1.1164784E3,3.6045163E2,2.192104E1,4.224782E2,2.1714282E3,4.3842078E2],"tree_param":{"num_deleted":"0","num_feature":"23","num_nodes":"87","size_leaf_vector":"1"}},{"base_weights":[-1.18194E-3,1.3694478E0,-1.6165408E0,1.5723267E0,3.830254E-1,-8.9425635E-1,-1.8284347E0,1.6790113E0,1.1324178E0,-5.1157583E-2,5.867941E-1,-9.3888336E-1,8.7671004E-2,-1.6179882E0,-1.9268699E0,1.3964124E0,1.7440125E0,4.5454514E-1,1.265123E0,1.642507E0,-1.4567676E-1,5.165232E-1,8.9361295E-2,-6.4085495E-1,-1.2205781E0,-1.626152E0,8.049374E-2,-1.858775E0,-9.8332286E-2,8.9955606E-2,1.3375548E0,1.6914333E0,1.7831283E0,1.4925303E-1,7.03735E-1,1.0356135E0,1.345987E0,1.6881436E0,6.7088874E-3,-6.72009E-3,-1.1396867E0,9.368122E-1,2.871638E-1,-6.820718E-1,1.6809858E0,-1.3315623E0,-8.4149444E-1,-1.7278727E0,-1.4764751E0,-1.860823E0,3.704735E-2,4.3745227E-2,7.028103E-2,8.462773E-2,2.8958803E-2,8.941316E-2,7.911637E-2,8.1555806E-2,2.5683253E-3,3.9939802E-2,-1.768178E-2,4.5561615E-2,8.908369E-2,7.396489E-2,5.9094705E-2,7.4532623E-3,8.6802535E-2,-1.6459512E-2,1.5043673E-2,-6.3097745E-2,4.9654674E-2,3.746322E-2,6.1135836E-2,-4.105686E-3,1.9965768E-2,-2.9302357E-2,-6.61286E-2,8.807721E-2,9.119529E-3,-6.2680475E-2,-8.0877505E-2,-4.9875427E-2,-2.3425508E-2,-8.193039E-2,-9.2251085E-2,3.4507323E-2,-7.420507E-2,-9.115156E-2,-9.7525515E-2],"categories":[],"categories_nodes":[],"categories_segments":[],"categories_sizes":[],"default_left":[0,0,0,0,0,0,0,0,0,0,0,0,0,0,0,0,0,0,0,0,0,0,0,0,0,0,0,0,0,0,0,0,0,0,0,0,0,0,0,0,0,0,0,0,0,0,0,0,0,0,0,0,0,0,0,0,0,0,0,0,0,0,0,0,0,0,0,0,0,0,0,0,0,0,0,0,0,0,0,0,0,0,0,0,0,0,0,0,0],"id":1,"left_children":[1,3,5,7,9,11,13,15,17,19,21,23,-1,25,27,29,31,33,35,37,39,41,-1,43,45,47,-1,49,-1,-1,51,53,55,57,59,61,63,65,-1,67,69,71,73,75,77,79,81,83,85,87,-1,-1,-1,-1,-1,-1,-1,-1,-1,-1,-1,-1,-1,-1,-1,-1,-1,-1,-1,-1,-1,-1,-1,-1,-1,-1,-1,-1,-1,-1,-1,-1,-1,-1,-1,-1,-1,-1,-1],"loss_changes":[5.5694883E4,2.7227656E3,1.7655605E3,5.277988E2,2.0552884E2,3.1134155E2,1.8180273E2,1.6439062E2,1.9787183E2,1.1915361E2,1.3243488E2,2.1566797E2,0E0,7.774658E1,1.2802734E1,3.7964844E1,1.2160156E1,2.7489326E1,3.2834473E1,2.4818344E0,9.7298164E1,1.4383398E2,0E0,1.212392E2,5.4597168E1,4.0754883E1,0E0,1.3404297E1,0E0,0E0,4.5690674E1,2.9697266E0,1.5146484E0,2.3745813E1,2.0329361E1,4.336798E1,2.8011719E1,2.5506973E0,0E0,6.1505676E1,2.3783218E1,2.735968E1,4.014563E1,7.510364E1,2.3559952E0,2.0771606E1,1.7143204E1,1.4624512E1,2.0154053E1,4.095703E0,0E0,0E0,0E0,0E0,0E0,0E0,0E0,0E0,0E0,0E0,0E0,0E0,0E0,0E0,0E0,0E0,0E0,0E0,0E0,0E0,0E0,0E0,0E0,0E0,0E0,0E0,0E0,0E0,0E0,0E0,0E0,0E0,0E0,0E0,0E0,0E0,0E0,0E0,0E0],"parents":[2147483647,0,0,1,1,2,2,3,3,4,4,5,5,6,6,7,7,8,8,9,9,10,10,11,11,13,13,14,14,15,15,16,16,17,17,18,18,19,19,20,20,21,21,23,23,24,24,25,25,27,27,30,30,31,31,32,32,33,33,34,34,35,35,36,36,37,37,39,39,40,40,41,41,42,42,43,43,44,44,45,45,46,46,47,47,48,48,49,49],"right_children":[2,4,6,8,10,12,14,16,18,20,22,24,-1,26,28,30,32,34,36,38,40,42,-1,44,46,48,-1,50,-1,-1,52,54,56,58,60,62,64,66,-1,68,70,72,74,76,78,80,82,84,86,88,-1,-1,-1,-1,-1,-1,-1,-1,-1,-1,-1,-1,-1,-1,-1,-1,-1,-1,-1,-1,-1,-1,-1,-1,-1,-1,-1,-1,-1,-1,-1,-1,-1,-1,-1,-1,-1,-1,-1],"split_conditions":[3.95E0,1.8333334E0,8.2E0,9.5E-1,4.2421824E-1,1.3033334E1,1.4233334E1,1E0,1.4892912E-1,1.8666667E0,8.85E0,5.8333335E0,8.7671004E-2,1.945E1,1.935E1,1.6666668E-2,3.2E0,2.0984869E-1,6E-1,9.5E1,1.9E1,2.6333334E0,8.9361295E-2,1.0516666E1,1.5710204E0,8.9566857E-1,8.049374E-2,2.4283333E1,-9.8332286E-2,8.9955606E-2,3E0,5.4762454E0,3.4E0,9.8333335E-1,4.1E1,6.6E0,1.6166667E0,1.6666668E-2,6.7088874E-3,3.8086576E0,1.1E1,6E-1,1.3E1,1E1,1.1666666E0,5E0,1.9895287E1,3E-1,3.6689205E0,4E-1,3.704735E-2,4.3745227E-2,7.028103E-2,8.462773E-2,2.8958803E-2,8.941316E-2,7.911637E-2,8.1555806E-2,2.5683253E-3,3.9939802E-2,-1.768178E-2,4.5561615E-2,8.908369E-2,7.396489E-2,5.9094705E-2,7.4532623E-3,8.6802535E-2,-1.6459512E-2,1.5043673E-2,-6.3097745E-2,4.9654674E-2,3.746322E-2,6.1135836E-2,-4.105686E-3,1.9965768E-2,-2.9302357E-2,-6.61286E-2,8.807721E-2,9.119529E-3,-6.2680475E-2,-8.0877505E-2,-4.9875427E-2,-2.3425508E-2,-8.193039E-2,-9.2251085E-2,3.4507323E-2,-7.420507E-2,-9.115156E-2,-9.7525515E-2],"split_indices":[0,0,0,0,10,1,0,7,10,1,1,0,0,1,0,1,7,13,7,3,5,1,0,1,10,10,0,1,0,0,5,10,1,1,5,1,1,2,0,13,16,9,3,5,9,5,11,9,11,9,0,0,0,0,0,0,0,0,0,0,0,0,0,0,0,0,0,0,0,0,0,0,0,0,0,0,0,0,0,0,0,0,0,0,0,0,0,0,0],"split_type":[0,0,0,0,0,0,0,0,0,0,0,0,0,0,0,0,0,0,0,0,0,0,0,0,0,0,0,0,0,0,0,0,0,0,0,0,0,0,0,0,0,0,0,0,0,0,0,0,0,0,0,0,0,0,0,0,0,0,0,0,0,0,0,0,0,0,0,0,0,0,0,0,0,0,0,0,0,0,0,0,0,0,0,0,0,0,0,0,0],"sum_hessian":[2.5153104E4,1.3607397E4,1.1545706E4,1.1285666E4,2.321732E3,2.620026E3,8.925681E3,9.08065E3,2.2050154E3,7.4182556E2,1.5799062E3,2.5772314E3,4.2794292E1,2.8500132E3,6.075667E3,1.7022836E3,7.3783667E3,3.6172253E2,1.8432928E3,3.8345474E1,7.034801E2,1.4938873E3,8.601891E1,1.2539004E3,1.323331E3,2.843318E3,6.6950397E0,2.257923E3,3.817744E3,2.1330408E2,1.4889795E3,3.166378E3,4.211989E3,1.632804E2,1.9844215E2,4.8384433E2,1.3594486E3,3.7103638E1,1.2418368E0,6.180826E2,8.539751E1,5.2633026E2,9.675571E2,1.2327236E3,2.117683E1,1.02169684E3,3.0163422E2,1.6865753E3,1.1567428E3,2.25643E3,1.4932942E0,1.927425E2,1.296237E3,3.1626677E3,3.7102523E0,4.0992563E3,1.1273278E2,9.146841E0,1.5413354E2,1.8229756E2,1.6144594E1,4.1660968E2,6.723467E1,7.456553E2,6.1379333E2,1.2441827E0,3.5859455E1,3.0171017E2,3.163724E2,8.115344E1,4.244067E0,3.200224E2,2.0630788E2,2.2546014E2,7.42097E2,1.0736721E3,1.590515E2,1.9930012E1,1.2468202E0,8.07089E2,2.1460785E2,2.1149458E2,9.0139626E1,9.657122E2,7.208631E2,3.7434535E0,1.1529994E3,1.6025044E3,6.5392554E2],"tree_param":{"num_deleted":"0","num_feature":"23","num_nodes":"89","size_leaf_vector":"1"}},{"base_weights":[2.6061395E-4,1.3321347E0,-1.5149307E0,1.6104991E0,7.2281224E-1,-7.692768E-1,-1.7323624E0,1.3377081E0,1.6751931E0,1.0489955E0,3.298545E-1,-8.156202E-1,1.6969063E0,-1.4768002E0,-1.8116815E0,8.6514466E-2,1.2804111E0,1.6987615E0,1.58266E0,4.1266054E-1,1.1712588E0,-6.189387E-2,5.515983E-1,-4.080669E-1,-1.0398648E0,8.5753255E-2,2.7291683E-2,-1.4915646E0,1.4895604E0,-1.7186923E0,-1.8612976E0,1.0157168E0,1.3809742E0,1.5921265E0,1.7129444E0,1.6002504E0,1.3485862E0,8.284842E-2,3.4900042E-1,1.1360406E0,8.7036006E-2,8.3903424E-2,-1.3290508E-1,4.76815E-1,8.48424E-2,-4.4619495E-1,8.640885E-2,-1.1615486E0,-6.6546285E-1,-1.5696155E0,-1.2186704E0,1.0602894E-2,8.146427E-2,-1.7216139E0,6.098448E-2,-9.0757295E-2,-9.439439E-2,4.519312E-2,8.6898975E-2,6.956042E-2,-1.3610926E-2,7.972486E-2,1.9956334E-2,8.5847855E-2,7.863664E-2,5.513248E-2,8.033911E-2,7.184337E-2,3.933579E-2,1.6866558E-3,3.048799E-2,6.022184E-2,2.3122538E-2,-2.1948325E-3,-5.7522185E-2,4.2022828E-2,1.243067E-2,8.536442E-2,-2.423028E-2,-5.412476E-2,-8.056733E-2,-1.8240416E-2,-4.5791917E-2,-7.5790934E-2,-8.695755E-2,-4.9368363E-2,-6.966092E-2,-8.2230255E-2,-9.1626555E-2],"categories":[],"categories_nodes":[],"categories_segments":[],"categories_sizes":[],"default_left":[0,0,0,0,0,0,0,0,0,0,0,0,0,0,0,0,0,0,0,0,0,0,0,0,0,0,0,0,0,0,0,0,0,0,0,0,0,0,0,0,0,0,0,0,0,0,0,0,0,0,0,0,0,0,0,0,0,0,0,0,0,0,0,0,0,0,0,0,0,0,0,0,0,0,0,0,0,0,0,0,0,0,0,0,0,0,0,0,0],"id":2,"left_children":[1,3,5,7,9,11,13,15,17,19,21,23,25,27,29,-1,31,33,35,37,39,41,43,45,47,-1,-1,49,51,53,55,57,59,61,63,65,67,-1,69,71,-1,-1,73,75,-1,77,-1,79,81,83,85,-1,-1,87,-1,-1,-1,-1,-1,-1,-1,-1,-1,-1,-1,-1,-1,-1,-1,-1,-1,-1,-1,-1,-1,-1,-1,-1,-1,-1,-1,-1,-1,-1,-1,-1,-1,-1,-1],"loss_changes":[5.0376598E4,2.2521875E3,1.8919863E3,1.5867969E2,5.338723E2,3.029143E2,1.8058789E2,3.7213867E1,1.3376953E1,1.7666504E2,1.643776E2,2.3630542E2,8.779907E-2,9.6243164E1,2.8613281E1,0E0,3.9416748E1,6.1308594E0,4.0595703E0,2.8613361E1,3.6317383E1,8.482366E1,1.02665375E2,7.578847E1,7.53219E1,0E0,0E0,4.359619E1,1.6416302E0,2.2805176E1,2.0742188E0,3.284369E1,1.9133545E1,1.3486328E0,2.0117188E-1,2.7756348E0,4.4202423E0,0E0,2.8904823E1,8.242163E1,0E0,0E0,5.9615646E1,9.401935E1,0E0,7.574051E1,0E0,4.303125E1,3.0682526E1,1.2485107E1,1.798993E1,0E0,0E0,1.757129E1,0E0,0E0,0E0,0E0,0E0,0E0,0E0,0E0,0E0,0E0,0E0,0E0,0E0,0E0,0E0,0E0,0E0,0E0,0E0,0E0,0E0,0E0,0E0,0E0,0E0,0E0,0E0,0E0,0E0,0E0,0E0,0E0,0E0,0E0,0E0],"parents":[2147483647,0,0,1,1,2,2,3,3,4,4,5,5,6,6,7,7,8,8,9,9,10,10,11,11,12,12,13,13,14,14,16,16,17,17,18,18,19,19,20,20,21,21,22,22,23,23,24,24,27,27,28,28,29,29,30,30,31,31,32,32,33,33,34,34,35,35,36,36,38,38,39,39,42,42,43,43,45,45,47,47,48,48,49,49,50,50,53,53],"right_children":[2,4,6,8,10,12,14,16,18,20,22,24,26,28,30,-1,32,34,36,38,40,42,44,46,48,-1,-1,50,52,54,56,58,60,62,64,66,68,-1,70,72,-1,-1,74,76,-1,78,-1,80,82,84,86,-1,-1,88,-1,-1,-1,-1,-1,-1,-1,-1,-1,-1,-1,-1,-1,-1,-1,-1,-1,-1,-1,-1,-1,-1,-1,-1,-1,-1,-1,-1,-1,-1,-1,-1,-1,-1,-1],"split_conditions":[3.65E0,1E0,8E0,5E0,2E0,1.29E1,1.23E1,1.6666668E-2,4.6666667E-1,1.4442673E-1,4.70356E-1,5E0,6E0,1.7216667E1,1.7933332E1,8.6514466E-2,4E0,1.4E1,3.29E0,1.6666668E-2,6.983333E0,1.6666668E-2,8.383333E0,1E1,1.5710204E0,8.5753255E-2,2.7291683E-2,1.5710204E0,1.7516666E1,2.2883333E1,2.2566668E1,5.6666665E0,5.6468887E1,6.1282587E0,4E0,7.774812E-2,3.5E0,8.284842E-2,2.0984869E-1,4.4333334E0,8.7036006E-2,8.3903424E-2,2.4E1,2.7166667E0,8.48424E-2,1.6666668E-2,8.640885E-2,7.9346424E-1,6.6E0,2.4E1,1.0266666E1,1.0602894E-2,8.146427E-2,5.0689656E-1,6.098448E-2,-9.0757295E-2,-9.439439E-2,4.519312E-2,8.6898975E-2,6.956042E-2,-1.3610926E-2,7.972486E-2,1.9956334E-2,8.5847855E-2,7.863664E-2,5.513248E-2,8.033911E-2,7.184337E-2,3.933579E-2,1.6866558E-3,3.048799E-2,6.022184E-2,2.3122538E-2,-2.1948325E-3,-5.7522185E-2,4.2022828E-2,1.243067E-2,8.536442E-2,-2.423028E-2,-5.412476E-2,-8.056733E-2,-1.8240416E-2,-4.5791917E-2,-7.5790934E-2,-8.695755E-2,-4.9368363E-2,-6.966092E-2,-8.2230255E-2,-9.1626555E-2],"split_indices":[0,0,0,4,0,1,0,1,0,10,10,0,5,1,0,0,5,5,15,1,1,1,1,1,10,0,0,10,1,1,1,1,15,10,1,10,1,0,13,1,0,0,5,1,0,1,0,14,1,6,1,0,0,14,0,0,0,0,0,0,0,0,0,0,0,0,0,0,0,0,0,0,0,0,0,0,0,0,0,0,0,0,0,0,0,0,0,0,0],"split_type":[0,0,0,0,0,0,0,0,0,0,0,0,0,0,0,0,0,0,0,0,0,0,0,0,0,0,0,0,0,0,0,0,0,0,0,0,0,0,0,0,0,0,0,0,0,0,0,0,0,0,0,0,0,0,0,0,0,0,0,0,0,0,0,0,0,0,0,0,0,0,0,0,0,0,0,0,0,0,0,0,0,0,0,0,0,0,0,0,0],"sum_hessian":[2.496108E4,1.3284203E4,1.1676877E4,9.117361E3,4.1668413E3,2.637262E3,9.039615E3,1.7519025E3,7.365459E3,2.2759607E3,1.8908807E3,2.589275E3,4.7987213E1,2.145748E3,6.8938667E3,2.1940556E2,1.5324968E3,5.8564497E3,1.5090095E3,3.675218E2,1.9084388E3,6.837104E2,1.2071703E3,9.200145E2,1.6692603E3,4.6759586E1,1.2276243E0,2.1356155E3,1.0132476E1,2.4109546E3,4.482912E3,4.2498495E2,1.1075118E3,7.007911E2,5.1556587E3,1.3981067E3,1.1090279E2,1.66695E1,3.508523E2,1.8001066E3,1.0833228E2,2.5921993E1,6.577884E2,1.134505E3,7.2665375E1,9.046591E2,1.5355375E1,1.2582241E3,4.110361E2,1.6569557E3,4.786598E2,1.247183E0,8.885293E0,2.4089736E3,1.9811165E0,1.6640082E3,2.818904E3,3.6994434E2,5.5040607E1,1.1008555E3,6.6564384E0,6.990653E2,1.7257279E0,5.0012817E3,1.5437668E2,2.0314953E1,1.3777917E3,9.4497955E1,1.640483E1,1.5933727E2,1.9151503E2,1.6334575E3,1.6664899E2,6.058365E2,5.1951946E1,4.3640543E2,6.9809955E2,1.5091823E1,8.895673E2,1.0730403E3,1.8518382E2,1.8788184E2,2.2315427E2,1.2653704E3,3.9158533E2,2.0872427E2,2.6993552E2,1.4311592E3,9.778144E2],"tree_param":{"num_deleted":"0","num_feature":"23","num_nodes":"89","size_leaf_vector":"1"}},{"base_weights":[7.640918E-4,1.2768054E0,-1.4449581E0,1.5466802E0,6.903973E-1,-7.2028154E-1,-1.6453E0,1.2771984E0,1.6111906E0,1.0116006E0,3.0661753E-1,-7.664804E-1,8.276856E-2,-1.3404835E0,-1.7175934E0,1.654739E0,1.2197949E0,1.5618236E0,1.6560695E0,3.1659177E-1,1.1140473E0,-6.724933E-2,5.249305E-1,-3.9321572E-1,-9.8740536E-1,-1.3620554E0,7.9369016E-2,-1.6101189E0,-1.7705992E0,1.6674591E0,1.1846553E-2,9.412133E-1,1.3262472E0,1.5655241E0,1.1273025E0,1.6606066E0,1.3359168E0,4.330561E-2,6.5243083E-1,1.0798138E0,8.414287E-2,3.0115652E-1,-4.1492313E-1,4.6018237E-1,8.288733E-2,-4.307805E-1,8.3181046E-2,-1.1484487E0,-7.545756E-1,-1.4345701E0,-1.1034399E0,-1.613594E0,6.528861E-2,-1.7326632E0,-1.8119782E0,8.358288E-2,2.4520297E-2,4.1203033E-2,8.37745E-2,6.745302E-2,3.1743705E-2,7.965614E-2,7.482419E-2,6.106581E-3,6.286037E-2,8.3349705E-2,7.71158E-2,7.093068E-2,1.2843219E-2,-1.7403362E-4,6.085611E-2,3.9711755E-2,1.1446034E-2,5.725952E-2,1.625893E-2,-9.583288E-4,4.0226653E-2,-1.2236251E-2,-6.1464768E-2,3.867232E-2,1.3568118E-2,8.123487E-2,-2.3098366E-2,-5.416574E-2,-7.9229765E-2,-2.596631E-2,-4.7030453E-2,-6.441336E-2,-7.574529E-2,-5.9226632E-2,-4.127341E-2,-7.880111E-2,-8.908989E-2,-8.5350715E-2,-9.065468E-2,-1.18703395E-2,-9.067786E-2],"categories":[],"categories_nodes":[],"categories_segments":[],"categories_sizes":[],"default_left":[0,0,0,0,0,0,0,0,0,0,0,0,0,0,0,0,0,0,0,0,0,0,0,0,0,0,0,0,0,0,0,0,0,0,0,0,0,0,0,0,0,0,0,0,0,0,0,0,0,0,0,0,0,0,0,0,0,0,0,0,0,0,0,0,0,0,0,0,0,0,0,0,0,0,0,0,0,0,0,0,0,0,0,0,0,0,0,0,0,0,0,0,0,0,0,0,0],"id":3,"left_children":[1,3,5,7,9,11,13,15,17,19,21,23,-1,25,27,29,31,33,35,37,39,41,43,45,47,49,-1,51,53,55,-1,57,59,61,63,65,67,69,71,73,-1,75,77,79,-1,81,-1,83,85,87,89,91,-1,93,95,-1,-1,-1,-1,-1,-1,-1,-1,-1,-1,-1,-1,-1,-1,-1,-1,-1,-1,-1,-1,-1,-1,-1,-1,-1,-1,-1,-1,-1,-1,-1,-1,-1,-1,-1,-1,-1,-1,-1,-1,-1,-1],"loss_changes":[4.568221E4,2.0805137E3,1.6843105E3,1.5452344E2,5.109336E2,2.7742456E2,1.9809766E2,3.578882E1,1.3505859E1,1.603689E2,1.5438066E2,2.0320264E2,0E0,1.12562744E2,3.9007812E1,3.706604E0,4.3770996E1,3.8251953E0,3.2832031E0,2.6714941E1,3.648291E1,8.9532326E1,8.681375E1,7.176961E1,5.726111E1,3.096753E1,0E0,2.6810059E1,4.569336E0,2.9333496E-1,0E0,3.501996E1,1.642871E1,4.178711E0,4.1461487E0,2.4902344E-1,4.8155518E0,8.885887E0,7.664978E0,9.129443E1,0E0,5.4755898E1,4.953319E1,6.667882E1,0E0,5.8694336E1,0E0,2.4262085E1,2.7379272E1,1.3942139E1,7.688019E0,1.2583008E1,0E0,2.2368164E0,5.354492E0,0E0,0E0,0E0,0E0,0E0,0E0,0E0,0E0,0E0,0E0,0E0,0E0,0E0,0E0,0E0,0E0,0E0,0E0,0E0,0E0,0E0,0E0,0E0,0E0,0E0,0E0,0E0,0E0,0E0,0E0,0E0,0E0,0E0,0E0,0E0,0E0,0E0,0E0,0E0,0E0,0E0,0E0],"parents":[2147483647,0,0,1,1,2,2,3,3,4,4,5,5,6,6,7,7,8,8,9,9,10,10,11,11,13,13,14,14,15,15,16,16,17,17,18,18,19,19,20,20,21,21,22,22,23,23,24,24,25,25,27,27,28,28,29,29,31,31,32,32,33,33,34,34,35,35,36,36,37,37,38,38,39,39,41,41,42,42,43,43,45,45,47,47,48,48,49,49,50,50,51,51,53,53,54,54],"right_children":[2,4,6,8,10,12,14,16,18,20,22,24,-1,26,28,30,32,34,36,38,40,42,44,46,48,50,-1,52,54,56,-1,58,60,62,64,66,68,70,72,74,-1,76,78,80,-1,82,-1,84,86,88,90,92,-1,94,96,-1,-1,-1,-1,-1,-1,-1,-1,-1,-1,-1,-1,-1,-1,-1,-1,-1,-1,-1,-1,-1,-1,-1,-1,-1,-1,-1,-1,-1,-1,-1,-1,-1,-1,-1,-1,-1,-1,-1,-1,-1,-1],"split_conditions":[3.65E0,1E0,7.75E0,1E0,2E0,1.2633333E1,1.1216666E1,3.3333335E-2,3.6E0,1.6666668E-2,4.70356E-1,5E0,8.276856E-2,1.6133333E1,1.6783333E1,5.2933334E1,4E0,1.695E1,4.05E0,2.5881038E0,6.983333E0,2.9666667E0,8.633333E0,1E1,8.9566857E-1,1.5710204E0,7.9369016E-2,2.1716667E1,2.375E1,1.0786806E2,1.1846553E-2,5.5E0,2.397E1,1.4833333E0,4.366667E0,5E-1,4.83E2,2.0928806E1,4.9617534E0,4.85E0,8.414287E-2,2.0166667E0,1.6E1,2.7166667E0,8.288733E-2,1.6666668E-2,8.3181046E-2,1E1,6.6E0,1.662561E1,2.0396585E1,2.3E1,6.528861E-2,1.1E1,1.9E1,8.358288E-2,2.4520297E-2,4.1203033E-2,8.37745E-2,6.745302E-2,3.1743705E-2,7.965614E-2,7.482419E-2,6.106581E-3,6.286037E-2,8.3349705E-2,7.71158E-2,7.093068E-2,1.2843219E-2,-1.7403362E-4,6.085611E-2,3.9711755E-2,1.1446034E-2,5.725952E-2,1.625893E-2,-9.583288E-4,4.0226653E-2,-1.2236251E-2,-6.1464768E-2,3.867232E-2,1.3568118E-2,8.123487E-2,-2.3098366E-2,-5.416574E-2,-7.9229765E-2,-2.596631E-2,-4.7030453E-2,-6.441336E-2,-7.574529E-2,-5.9226632E-2,-4.127341E-2,-7.880111E-2,-8.908989E-2,-8.5350715E-2,-9.065468E-2,-1.18703395E-2,-9.067786E-2],"split_indices":[0,0,0,7,0,1,0,1,7,2,10,0,0,1,0,3,5,15,1,13,1,1,1,1,10,10,0,1,1,13,0,1,15,1,3,0,6,11,15,1,0,2,5,1,0,1,0,5,1,11,11,6,0,6,0,0,0,0,0,0,0,0,0,0,0,0,0,0,0,0,0,0,0,0,0,0,0,0,0,0,0,0,0,0,0,0,0,0,0,0,0,0,0,0,0,0,0],"split_type":[0,0,0,0,0,0,0,0,0,0,0,0,0,0,0,0,0,0,0,0,0,0,0,0,0,0,0,0,0,0,0,0,0,0,0,0,0,0,0,0,0,0,0,0,0,0,0,0,0,0,0,0,0,0,0,0,0,0,0,0,0,0,0,0,0,0,0,0,0,0,0,0,0,0,0,0,0,0,0,0,0,0,0,0,0,0,0,0,0,0,0,0,0,0,0,0,0],"sum_hessian":[2.4760672E4,1.3152216E4,1.1608456E4,9.00591E3,4.146306E3,2.515173E3,9.093283E3,1.7435032E3,7.2624067E3,2.256282E3,1.8900242E3,2.4678586E3,4.731458E1,1.7469626E3,7.346321E3,2.2643361E2,1.5170695E3,3.4753325E3,3.7870742E3,2.903831E2,1.9658988E3,6.970312E2,1.1929929E3,9.186052E2,1.5492533E3,1.7347163E3,1.2246225E1,2.436815E3,4.909506E3,2.2424567E2,2.187945E0,4.2215295E2,1.0949165E3,3.443404E3,3.1928478E1,3.7300254E3,5.7048733E1,1.6072415E2,1.2965894E2,1.8570328E3,1.0886601E2,3.3849026E2,3.585409E2,1.1298221E3,6.317074E1,9.029057E2,1.5699548E1,9.134837E2,6.3576965E2,1.351277E3,3.8343942E2,2.43436E3,2.4546547E0,2.583676E3,2.3258296E3,2.2302995E2,1.2157137E0,3.6589694E2,5.625601E1,1.059021E3,3.5895515E1,2.4442493E3,9.9915466E2,3.8761282E0,2.805235E1,3.5265107E3,2.0351477E2,5.269554E1,4.353191E0,1.5552234E2,5.201814E0,9.647933E1,3.3179607E1,1.708502E3,1.4853088E2,2.0744489E2,1.310454E2,2.976373E2,6.0903614E1,4.237307E2,7.060915E2,1.2730956E1,8.9017474E2,7.978211E2,1.1566256E2,2.8242255E2,3.5334708E2,4.85021E2,8.66256E2,2.9431693E2,8.912252E1,1.9983547E3,4.3600546E2,1.9758177E3,6.078583E2,2.4815745E0,2.3233481E3],"tree_param":{"num_deleted":"0","num_feature":"23","num_nodes":"97","size_leaf_vector":"1"}},{"base_weights":[3.0258466E-3,-1.4281439E0,1.1045666E0,8.070074E-2,-1.4831764E0,3.2515213E-1,1.3770802E0,-1.6313193E0,-1.0453879E0,-1.5184847E-1,5.1235336E-1,1.5165446E0,1.034363E0,-1.5930254E0,-1.6940295E0,-1.2244247E0,-8.0635977E-1,-4.0504292E-1,2.1172848E-1,1.0251133E0,3.69992E-1,1.1894783E0,1.5514E0,1.1538572E0,3.2477945E-1,-1.6288463E0,-1.4895654E0,-1.5821463E0,-1.7274356E0,-1.1598607E0,-1.5424615E0,-9.542148E-1,-5.2638274E-1,-4.8072064E-1,8.978733E-2,6.3395953E-1,1.17432594E-1,6.668326E-1,1.1952637E0,4.056296E-1,-4.5454243E-1,1.2453296E-1,1.2123544E0,1.4910959E0,1.5978861E0,1.275557E0,8.996005E-1,6.568882E-1,-4.6475953E-1,-7.6982014E-2,-8.410799E-2,-7.877757E-2,-5.8203388E-2,1.3666386E-2,-7.9360865E-2,-5.9878387E-2,-8.6738855E-2,-5.857995E-2,8.732541E-3,-3.4532805E-3,-7.761826E-2,-3.7862323E-2,-5.733201E-2,1.3213261E-2,-2.9852157E-2,-4.027061E-3,-4.2109855E-2,-3.0785209E-2,3.8934965E-2,-3.5249759E-3,2.3980588E-2,2.4270598E-2,7.951742E-2,7.0429675E-2,5.4645073E-2,7.125052E-3,2.5501361E-2,6.8334E-3,-5.0008323E-2,4.4438332E-2,-2.386096E-2,6.2138792E-2,2.7386872E-2,7.4817635E-2,4.6563037E-2,8.0464914E-2,7.485192E-2,4.9828287E-2,6.964987E-2,5.4855354E-2,2.955634E-2,4.0652625E-2,-8.377998E-3,-3.2732494E-3,-6.6637665E-2],"categories":[],"categories_nodes":[],"categories_segments":[],"categories_sizes":[],"default_left":[0,0,0,0,0,0,0,0,0,0,0,0,0,0,0,0,0,0,0,0,0,0,0,0,0,0,0,0,0,0,0,0,0,0,0,0,0,0,0,0,0,0,0,0,0,0,0,0,0,0,0,0,0,0,0,0,0,0,0,0,0,0,0,0,0,0,0,0,0,0,0,0,0,0,0,0,0,0,0,0,0,0,0,0,0,0,0,0,0,0,0,0,0,0,0],"id":4,"left_children":[1,3,5,-1,7,9,11,13,15,17,19,21,23,25,27,29,31,33,35,37,39,41,43,45,47,49,51,53,55,57,59,61,63,65,-1,67,69,71,73,75,77,79,81,83,85,87,89,91,93,-1,-1,-1,-1,-1,-1,-1,-1,-1,-1,-1,-1,-1,-1,-1,-1,-1,-1,-1,-1,-1,-1,-1,-1,-1,-1,-1,-1,-1,-1,-1,-1,-1,-1,-1,-1,-1,-1,-1,-1,-1,-1,-1,-1,-1,-1],"loss_changes":[3.874601E4,1.7919727E3,2.9493867E3,0E0,6.792715E2,3.21465E2,4.902539E2,1.6134766E1,1.1274048E2,9.3538124E1,1.883175E2,8.150586E1,2.522478E2,1.5682617E1,8.322266E0,2.937085E1,4.673108E1,1.0058903E2,1.6544231E1,3.3412598E1,5.9682617E1,1.7107727E1,1.613086E1,7.774341E1,1.1326732E2,1.4623047E1,3.3667236E1,6.944702E0,6.7407227E0,2.0028076E1,3.5853271E0,2.7385864E1,2.2312302E1,8.378238E1,0E0,1.4221024E1,2.3341251E1,2.9880821E1,6.741333E0,5.3259186E1,2.7349909E1,7.787885E0,1.33394165E1,7.11084E0,1.8662109E0,5.5027588E1,4.9840515E1,3.9232376E1,4.432489E1,0E0,0E0,0E0,0E0,0E0,0E0,0E0,0E0,0E0,0E0,0E0,0E0,0E0,0E0,0E0,0E0,0E0,0E0,0E0,0E0,0E0,0E0,0E0,0E0,0E0,0E0,0E0,0E0,0E0,0E0,0E0,0E0,0E0,0E0,0E0,0E0,0E0,0E0,0E0,0E0,0E0,0E0,0E0,0E0,0E0,0E0],"parents":[2147483647,0,0,1,1,2,2,4,4,5,5,6,6,7,7,8,8,9,9,10,10,11,11,12,12,13,13,14,14,15,15,16,16,17,17,18,18,19,19,20,20,21,21,22,22,23,23,24,24,25,25,26,26,27,27,28,28,29,29,30,30,31,31,32,32,33,33,35,35,36,36,37,37,38,38,39,39,40,40,41,41,42,42,43,43,44,44,45,45,46,46,47,47,48,48],"right_children":[2,4,6,-1,8,10,12,14,16,18,20,22,24,26,28,30,32,34,36,38,40,42,44,46,48,50,52,54,56,58,60,62,64,66,-1,68,70,72,74,76,78,80,82,84,86,88,90,92,94,-1,-1,-1,-1,-1,-1,-1,-1,-1,-1,-1,-1,-1,-1,-1,-1,-1,-1,-1,-1,-1,-1,-1,-1,-1,-1,-1,-1,-1,-1,-1,-1,-1,-1,-1,-1,-1,-1,-1,-1,-1,-1,-1,-1,-1,-1],"split_conditions":[1E0,1E0,3E0,8.070074E-2,1E0,1.6666668E-2,1.2333333E0,5.0689656E-1,8.9566857E-1,2.0984869E-1,2.15E0,5E0,7.9346424E-1,1.5710204E0,1.43E1,7.9346424E-1,4E0,2.0928806E1,4E0,1.1E1,2E0,2.190406E-2,1.8E1,5.9375E-1,2.8666666E0,2.2E1,2E-1,3.6689205E0,2.5881038E0,3.2128333E2,4.6260414E0,9.569887E-2,1.1219259E1,2.7833333E0,8.978733E-2,-1.3281306E1,1.8045602E0,8.905028E-1,7.1666664E-1,1.4E1,-2.979091E0,-9.6E0,2.4982727E1,1.695E1,5E-1,4E0,2.5166667E0,3.8E1,2.3E1,-7.6982014E-2,-8.410799E-2,-7.877757E-2,-5.8203388E-2,1.3666386E-2,-7.9360865E-2,-5.9878387E-2,-8.6738855E-2,-5.857995E-2,8.732541E-3,-3.4532805E-3,-7.761826E-2,-3.7862323E-2,-5.733201E-2,1.3213261E-2,-2.9852157E-2,-4.027061E-3,-4.2109855E-2,-3.0785209E-2,3.8934965E-2,-3.5249759E-3,2.3980588E-2,2.4270598E-2,7.951742E-2,7.0429675E-2,5.4645073E-2,7.125052E-3,2.5501361E-2,6.8334E-3,-5.0008323E-2,4.4438332E-2,-2.386096E-2,6.2138792E-2,2.7386872E-2,7.4817635E-2,4.6563037E-2,8.0464914E-2,7.485192E-2,4.9828287E-2,6.964987E-2,5.4855354E-2,2.955634E-2,4.0652625E-2,-8.377998E-3,-3.2732494E-3,-6.6637665E-2],"split_indices":[4,3,4,0,5,2,2,14,10,13,2,4,14,10,2,14,22,11,3,3,9,10,4,14,2,3,9,11,13,3,11,12,11,3,0,12,10,14,2,3,15,15,15,15,2,4,2,5,5,0,0,0,0,0,0,0,0,0,0,0,0,0,0,0,0,0,0,0,0,0,0,0,0,0,0,0,0,0,0,0,0,0,0,0,0,0,0,0,0,0,0,0,0,0,0],"split_type":[0,0,0,0,0,0,0,0,0,0,0,0,0,0,0,0,0,0,0,0,0,0,0,0,0,0,0,0,0,0,0,0,0,0,0,0,0,0,0,0,0,0,0,0,0,0,0,0,0,0,0,0,0,0,0,0,0,0,0,0,0,0,0,0,0,0,0,0,0,0,0,0,0,0,0,0,0,0,0,0,0,0,0,0,0,0,0,0,0,0,0,0,0,0,0],"sum_hessian":[2.4575365E4,1.0688327E4,1.3887037E4,1.8941235E2,1.0498915E4,3.598159E3,1.0288878E4,7.842402E3,2.6565132E3,1.01417224E3,2.5839866E3,7.310527E3,2.9783513E3,4.885489E3,2.9569133E3,1.5165009E3,1.1400123E3,5.977712E2,4.1640106E2,5.601665E2,2.0238201E3,7.074332E2,6.6030938E3,2.5485486E3,4.2980283E2,3.6180671E3,1.2674216E3,6.90998E2,2.2659153E3,1.2644532E3,2.5204755E2,7.4445807E2,3.9555426E2,5.786548E2,1.9116419E1,7.497236E1,3.4142868E2,1.819528E2,3.7821368E2,1.9404586E3,8.336151E1,1.5012353E1,6.924209E2,2.8887495E3,3.7143442E3,1.7208486E3,8.276998E2,3.0266074E2,1.27142075E2,1.3646156E3,2.2534514E3,9.995364E2,2.678852E2,1.739135E0,6.8925885E2,3.3209023E1,2.2327063E3,1.2535491E3,1.0904153E1,1.736133E0,2.5031142E2,3.7032516E2,3.7413293E2,3.2225903E1,3.6332837E2,2.7520575E2,3.0344904E2,7.444412E0,6.752795E1,2.2531812E2,1.1611057E2,1.533529E2,2.8599909E1,1.18497086E2,2.597166E2,5.5186865E2,1.38859E3,4.0369114E1,4.2992397E1,6.4032154E0,8.609138E0,6.612822E2,3.113864E1,2.8602192E3,2.8530281E1,3.3233123E3,3.9103204E2,5.126E2,1.2082487E3,5.0305322E2,3.2464658E2,2.544731E2,4.818765E1,8.781899E1,3.9323082E1],"tree_param":{"num_deleted":"0","num_feature":"23","num_nodes":"95","size_leaf_vector":"1"}},{"base_weights":[-5.4244874E-3,-1.3734924E0,1.0524617E0,7.827986E-2,-1.4246719E0,4.2642385E-1,1.3806502E0,-1.5678065E0,-1.0043865E0,7.6706016E-1,1.1808677E-1,1.4690647E0,8.7668264E-1,-1.4200289E0,-1.6204419E0,-1.0315305E0,8.305306E-2,2.8256056E-1,9.528572E-1,-1.1657889E-2,1.5470414E0,1.5088953E0,1.2629553E0,1.2482051E0,-2.1206653E-1,-1.4758136E0,-1.2402645E0,-1.5602707E0,-8.276732E-2,-1.2130382E0,-8.4083045E-1,-1.481396E-2,5.767562E-1,1.0638496E0,7.175524E-1,-5.067482E-1,2.2067755E-1,8.0438316E-2,3.063349E-1,1.3507894E0,1.5320555E0,1.43708E0,9.894354E-1,1.3856745E0,8.9970505E-1,6.5656146E-3,-1.2959365E0,-7.4634254E-2,-4.71663E-2,-5.733731E-2,-7.796275E-2,-7.5877234E-2,-8.191054E-2,-5.6650396E-2,-7.814843E-2,-3.0637665E-2,-5.025966E-2,-4.5122467E-3,8.113575E-2,3.7554488E-2,1.7129585E-2,6.654664E-2,4.86116E-2,2.0566922E-2,4.7184806E-2,-9.196981E-3,-3.311531E-2,3.590637E-2,-1.5840385E-3,7.062413E-2,-3.9025065E-2,6.867425E-2,4.534925E-2,7.449522E-2,7.802218E-2,6.552302E-2,7.4292414E-2,5.1728595E-2,-3.51264E-2,6.624207E-2,7.948369E-2,4.8405122E-2,-7.0873485E-3,1.3492229E-2,-3.519189E-2,-7.646414E-2,-2.7189896E-2],"categories":[],"categories_nodes":[],"categories_segments":[],"categories_sizes":[],"default_left":[0,0,0,0,0,0,0,0,0,0,0,0,0,0,0,0,0,0,0,0,0,0,0,0,0,0,0,0,0,0,0,0,0,0,0,0,0,0,0,0,0,0,0,0,0,0,0,0,0,0,0,0,0,0,0,0,0,0,0,0,0,0,0,0,0,0,0,0,0,0,0,0,0,0,0,0,0,0,0,0,0,0,0,0,0,0,0],"id":5,"left_children":[1,3,5,-1,7,9,11,13,15,17,19,21,23,25,27,29,-1,31,33,35,37,39,41,43,45,47,49,51,-1,53,55,57,59,61,63,65,67,-1,69,71,73,75,77,79,81,83,85,-1,-1,-1,-1,-1,-1,-1,-1,-1,-1,-1,-1,-1,-1,-1,-1,-1,-1,-1,-1,-1,-1,-1,-1,-1,-1,-1,-1,-1,-1,-1,-1,-1,-1,-1,-1,-1,-1,-1,-1],"loss_changes":[3.510403E4,1.5932539E3,2.809755E3,0E0,6.238574E2,4.94172E2,3.985547E2,5.8007812E1,1.9300854E2,2.0098108E2,4.581819E2,6.0753906E1,5.430166E2,1.8671387E1,9.410156E0,8.959668E1,0E0,5.434752E1,4.142993E1,2.6082263E2,1.5260956E1,2.1335938E1,5.774341E1,4.6688477E1,8.110781E1,1.2561768E1,1.2842712E1,4.552246E0,0E0,3.5729248E1,4.7364685E1,3.842088E1,1.2489632E1,2.551648E1,3.5681305E1,3.6244995E1,1.9376215E2,0E0,1.430772E1,7.0648193E0,4.336914E0,2.7264404E0,3.787503E1,6.7753906E0,2.0501816E1,5.36415E1,9.251579E0,0E0,0E0,0E0,0E0,0E0,0E0,0E0,0E0,0E0,0E0,0E0,0E0,0E0,0E0,0E0,0E0,0E0,0E0,0E0,0E0,0E0,0E0,0E0,0E0,0E0,0E0,0E0,0E0,0E0,0E0,0E0,0E0,0E0,0E0,0E0,0E0,0E0,0E0,0E0,0E0],"parents":[2147483647,0,0,1,1,2,2,4,4,5,5,6,6,7,7,8,8,9,9,10,10,11,11,12,12,13,13,14,14,15,15,17,17,18,18,19,19,20,20,21,21,22,22,23,23,24,24,25,25,26,26,27,27,29,29,30,30,31,31,32,32,33,33,34,34,35,35,36,36,38,38,39,39,40,40,41,41,42,42,43,43,44,44,45,45,46,46],"right_children":[2,4,6,-1,8,10,12,14,16,18,20,22,24,26,28,30,-1,32,34,36,38,40,42,44,46,48,50,52,-1,54,56,58,60,62,64,66,68,-1,70,72,74,76,78,80,82,84,86,-1,-1,-1,-1,-1,-1,-1,-1,-1,-1,-1,-1,-1,-1,-1,-1,-1,-1,-1,-1,-1,-1,-1,-1,-1,-1,-1,-1,-1,-1,-1,-1,-1,-1,-1,-1,-1,-1,-1,-1],"split_conditions":[2E-1,1.6666668E-2,8E-1,7.827986E-2,1E0,2.7166667E0,2.6333334E0,1.5666667E1,1.49E1,1.6666668E-2,9.416667E0,1.4833333E0,1.9333333E0,1.5710204E0,2.0583334E1,7.3484695E-1,8.305306E-2,2E0,7E0,4.1247895E-1,4.766667E0,1.9E1,1.0166667E0,8.833333E-1,2.8E1,6.607E1,5.4545456E-1,5.813953E-1,-8.276732E-2,5E1,7.65E0,2.0039268E1,2.5881904E-1,7E-1,1E1,3.7166667E0,2.2166667E0,8.0438316E-2,6.8421054E-1,1.695E1,3.6E0,1.4E1,5.7E1,5.8333335E0,4.2E1,4.7166667E0,4.1873038E-1,-7.4634254E-2,-4.71663E-2,-5.733731E-2,-7.796275E-2,-7.5877234E-2,-8.191054E-2,-5.6650396E-2,-7.814843E-2,-3.0637665E-2,-5.025966E-2,-4.5122467E-3,8.113575E-2,3.7554488E-2,1.7129585E-2,6.654664E-2,4.86116E-2,2.0566922E-2,4.7184806E-2,-9.196981E-3,-3.311531E-2,3.590637E-2,-1.5840385E-3,7.062413E-2,-3.9025065E-2,6.867425E-2,4.534925E-2,7.449522E-2,7.802218E-2,6.552302E-2,7.4292414E-2,5.1728595E-2,-3.51264E-2,6.624207E-2,7.948369E-2,4.8405122E-2,-7.0873485E-3,1.3492229E-2,-3.519189E-2,-7.646414E-2,-2.7189896E-2],"split_indices":[7,1,7,0,5,1,1,1,1,2,1,1,2,10,1,10,0,5,2,10,2,6,2,2,5,15,14,14,0,6,1,11,21,1,6,1,2,0,14,15,7,5,5,1,5,1,10,0,0,0,0,0,0,0,0,0,0,0,0,0,0,0,0,0,0,0,0,0,0,0,0,0,0,0,0,0,0,0,0,0,0,0,0,0,0,0,0],"split_type":[0,0,0,0,0,0,0,0,0,0,0,0,0,0,0,0,0,0,0,0,0,0,0,0,0,0,0,0,0,0,0,0,0,0,0,0,0,0,0,0,0,0,0,0,0,0,0,0,0,0,0,0,0,0,0,0,0,0,0,0,0,0,0,0,0,0,0,0,0,0,0,0,0,0,0,0,0,0,0,0,0,0,0,0,0,0,0],"sum_hessian":[2.4253512E4,1.0576104E4,1.3677409E4,1.805075E2,1.0395596E4,4.7048823E3,8.972527E3,7.7526006E3,2.642995E3,2.234654E3,2.4702283E3,7.631725E3,1.3408021E3,2.0434523E3,5.7091484E3,2.616958E3,2.603714E1,6.2011426E2,1.6145398E3,2.265518E3,2.0471019E2,6.390452E3,1.2412728E3,9.99566E2,3.4123618E2,1.5540028E3,4.8944946E2,2.1127405E3,3.5964077E3,1.338048E3,1.27891E3,3.0886328E2,3.1125098E2,1.094668E3,5.1987177E2,7.232157E2,1.5423022E3,1.9472595E2,9.984247E0,8.2408484E2,5.566367E3,7.5584357E2,4.8542926E2,7.146778E2,2.8488818E2,2.847849E2,5.6451263E1,1.5045297E3,4.9473175E1,3.8204144E2,1.0740802E2,1.3778735E3,7.3486694E2,1.0924409E3,2.4560713E2,5.376168E2,7.4129315E2,2.9616562E2,1.2697654E1,1.7715382E2,1.3409715E2,2.761395E2,8.185285E2,2.220372E2,2.978346E2,2.3588914E2,4.8732657E2,5.1846204E2,1.0238403E3,4.7996683E0,5.184579E0,7.819997E2,4.2085186E1,2.2616748E3,3.3046926E3,2.1791895E2,5.3792456E2,4.731944E2,1.2234872E1,5.5628625E2,1.5839151E2,2.6739728E2,1.749089E1,2.0823293E2,7.6551994E1,4.2295967E1,1.4155296E1],"tree_param":{"num_deleted":"0","num_feature":"23","num_nodes":"87","size_leaf_vector":"1"}},{"base_weights":[4.312198E-4,1.145636E0,-1.2766904E0,1.3228066E0,3.4746787E-1,-6.927352E-1,-1.4868292E0,9.511567E-1,1.4202433E0,2.983703E-1,7.889637E-2,-7.255074E-1,8.072333E-2,-1.3298694E0,-1.5717074E0,1.5132997E0,8.863471E-1,1.4651533E0,1.1778833E0,5.7311565E-1,6.943768E-2,-1.9497712E-1,-8.465077E-1,-1.3359063E0,7.7664465E-2,-1.5254469E0,-1.6063639E0,1.5213671E0,8.45897E-3,4.859783E-1,1.0433922E0,1.3469737E0,1.4931083E0,1.2882633E0,1.0048243E0,-4.2192508E-3,7.48816E-1,1.2953871E-1,-9.521472E-1,7.628524E-2,-2.4049836E-1,-7.71771E-1,-1.3420494E0,-1.2891113E0,-1.5376852E0,-1.477677E0,-1.5848893E0,-3.2988237E-4,-8.0375195E-2,2.0634657E-2,7.627286E-2,6.5279813E-3,3.162616E-2,4.862972E-2,7.752207E-2,6.196458E-2,6.929369E-2,7.533117E-2,7.025766E-2,6.4880714E-2,2.2303825E-2,5.62462E-2,2.9180495E-2,-1.2101751E-2,1.7523732E-2,3.563159E-2,7.7728435E-2,-1.2120222E-2,1.4844434E-2,-6.3667544E-3,-6.695495E-2,-2.808032E-2,1.1269057E-3,-3.16536E-2,-5.0021287E-2,-5.8113962E-2,-7.646605E-2,-5.921758E-2,-6.812305E-2,-4.861472E-2,-7.787835E-2,-7.446609E-2,-3.6323395E-2,-7.937103E-2,-4.33758E-2],"categories":[],"categories_nodes":[],"categories_segments":[],"categories_sizes":[],"default_left":[0,0,0,0,0,0,0,0,0,0,0,0,0,0,0,0,0,0,0,0,0,0,0,0,0,0,0,0,0,0,0,0,0,0,0,0,0,0,0,0,0,0,0,0,0,0,0,0,0,0,0,0,0,0,0,0,0,0,0,0,0,0,0,0,0,0,0,0,0,0,0,0,0,0,0,0,0,0,0,0,0,0,0,0,0],"id":6,"left_children":[1,3,5,7,9,11,13,15,17,19,-1,21,-1,23,25,27,29,31,33,35,37,39,41,43,-1,45,47,49,-1,51,53,55,57,59,61,63,65,67,69,-1,71,73,75,77,79,81,83,-1,-1,-1,-1,-1,-1,-1,-1,-1,-1,-1,-1,-1,-1,-1,-1,-1,-1,-1,-1,-1,-1,-1,-1,-1,-1,-1,-1,-1,-1,-1,-1,-1,-1,-1,-1,-1,-1],"loss_changes":[3.500474E4,1.783959E3,1.3874766E3,3.7258203E2,1.3808713E2,2.277185E2,1.0875195E2,7.691199E1,8.729883E1,1.3876122E2,0E0,1.895232E2,0E0,5.3013184E1,6.1972656E0,2.1349182E0,1.20736206E2,2.0771484E1,2.3228516E1,1.0173343E2,7.410069E1,4.345304E1,8.8064575E1,2.5598145E1,0E0,4.2753906E0,5.5791016E0,3.6437988E-1,0E0,2.831128E1,4.8180176E1,3.8515625E0,4.501953E0,5.56604E0,2.486441E1,1.9906626E1,2.13096E1,7.095685E1,2.123428E1,0E0,4.534929E1,6.574109E1,8.791504E0,1.6654297E1,4.6086426E0,1.0349121E1,4.8291016E-1,0E0,0E0,0E0,0E0,0E0,0E0,0E0,0E0,0E0,0E0,0E0,0E0,0E0,0E0,0E0,0E0,0E0,0E0,0E0,0E0,0E0,0E0,0E0,0E0,0E0,0E0,0E0,0E0,0E0,0E0,0E0,0E0,0E0,0E0,0E0,0E0,0E0,0E0],"parents":[2147483647,0,0,1,1,2,2,3,3,4,4,5,5,6,6,7,7,8,8,9,9,11,11,13,13,14,14,15,15,16,16,17,17,18,18,19,19,20,20,21,21,22,22,23,23,25,25,26,26,27,27,29,29,30,30,31,31,32,32,33,33,34,34,35,35,36,36,37,37,38,38,40,40,41,41,42,42,43,43,44,44,45,45,46,46],"right_children":[2,4,6,8,10,12,14,16,18,20,-1,22,-1,24,26,28,30,32,34,36,38,40,42,44,-1,46,48,50,-1,52,54,56,58,60,62,64,66,68,70,-1,72,74,76,78,80,82,84,-1,-1,-1,-1,-1,-1,-1,-1,-1,-1,-1,-1,-1,-1,-1,-1,-1,-1,-1,-1,-1,-1,-1,-1,-1,-1,-1,-1,-1,-1,-1,-1,-1,-1,-1,-1,-1,-1],"split_conditions":[3.65E0,1.7166667E0,8.7E0,4E0,8.633333E0,1.3616667E1,1.5066667E1,3.3333335E-2,8E-1,2.7166667E0,7.889637E-2,4.7166667E0,8.072333E-2,2.0266666E1,2.1716667E1,9.966666E0,4E0,1.4E1,1.6166667E0,1.6666668E-2,8.5714287E-1,1.6666668E-2,7.9346424E-1,2.3E1,7.7664465E-2,4.7619048E-1,1.7E1,-2.8225E1,8.45897E-3,2.0984869E-1,6.2166667E0,5E0,1.7666667E0,8.5E1,2.2E1,1.9897715E0,9.456522E-1,1.5928324E1,4E0,7.628524E-2,2.0199198E1,7E0,8.5365856E-1,1.1216666E1,9.183333E0,4.546851E-1,3.9E1,-3.2988237E-4,-8.0375195E-2,2.0634657E-2,7.627286E-2,6.5279813E-3,3.162616E-2,4.862972E-2,7.752207E-2,6.196458E-2,6.929369E-2,7.533117E-2,7.025766E-2,6.4880714E-2,2.2303825E-2,5.62462E-2,2.9180495E-2,-1.2101751E-2,1.7523732E-2,3.563159E-2,7.7728435E-2,-1.2120222E-2,1.4844434E-2,-6.3667544E-3,-6.695495E-2,-2.808032E-2,1.1269057E-3,-3.16536E-2,-5.0021287E-2,-5.8113962E-2,-7.646605E-2,-5.921758E-2,-6.812305E-2,-4.861472E-2,-7.787835E-2,-7.446609E-2,-3.6323395E-2,-7.937103E-2,-4.33758E-2],"split_indices":[0,0,0,4,1,1,0,1,0,1,0,1,0,1,1,2,6,5,1,2,14,1,14,6,0,14,0,15,0,13,1,4,1,5,5,13,14,13,1,0,13,0,14,0,1,14,15,0,0,0,0,0,0,0,0,0,0,0,0,0,0,0,0,0,0,0,0,0,0,0,0,0,0,0,0,0,0,0,0,0,0,0,0,0,0],"split_type":[0,0,0,0,0,0,0,0,0,0,0,0,0,0,0,0,0,0,0,0,0,0,0,0,0,0,0,0,0,0,0,0,0,0,0,0,0,0,0,0,0,0,0,0,0,0,0,0,0,0,0,0,0,0,0,0,0,0,0,0,0,0,0,0,0,0,0,0,0,0,0,0,0,0,0,0,0,0,0,0,0,0,0,0,0],"sum_hessian":[2.393179E4,1.2617596E4,1.1314192E4,1.0325067E4,2.2925288E3,2.9951797E3,8.319013E3,2.1469148E3,8.1781523E3,2.2057576E3,8.67712E1,2.953907E3,4.127261E1,2.9255847E3,5.393428E3,2.1962114E2,1.9272936E3,6.8953745E3,1.2827776E3,1.0018816E3,1.203876E3,5.4907587E2,2.404831E3,2.9200073E3,5.5773945E0,2.329271E3,3.0641572E3,2.1817976E2,1.4413787E0,5.441467E2,1.3831469E3,1.3284645E3,5.56691E3,7.7928894E2,5.0348865E2,2.3398964E2,7.6789197E2,1.1378104E3,6.606552E1,1.3313547E1,5.357623E2,2.091893E3,3.1293808E2,2.3763025E3,5.437049E2,1.3057706E3,1.0235003E3,2.1866972E0,3.0619705E3,1.1764895E0,2.1700327E2,1.5941205E2,3.8473468E2,1.2162443E3,1.6690253E2,3.6126962E2,9.671948E2,4.8114575E3,7.554527E2,7.7019666E2,9.092312E0,3.9048117E2,1.1300748E2,1.4026329E2,9.372635E1,7.366934E2,3.1198568E1,3.529388E2,7.8487164E2,2.152107E1,4.4544453E1,2.4073917E2,2.950232E2,1.3044183E3,7.8747473E2,1.6334373E2,1.4959435E2,9.856802E2,1.3906222E3,2.0164951E1,5.235399E2,1.2848708E3,2.0899817E1,1.01869305E3,4.8072124E0],"tree_param":{"num_deleted":"0","num_feature":"23","num_nodes":"85","size_leaf_vector":"1"}},{"base_weights":[1.1420081E-3,1.1739652E0,-1.1625497E0,1.3651315E0,7.0370626E-1,-3.9648715E-1,-1.3913181E0,1.1058518E0,1.4290965E0,2.609145E-1,8.359409E-1,-1.8563439E-1,-6.899508E-1,-1.0984453E0,-1.4793279E0,7.430676E-2,1.0562173E0,1.4611593E0,1.3579097E0,2.0437606E-1,7.4895024E-2,9.946416E-1,5.4742336E-1,-4.554323E-1,3.7501898E-2,-8.942016E-1,-4.2684546E-1,-1.1791639E0,-8.12669E-1,-1.3779778E0,-1.5293376E0,9.029497E-1,1.1972139E0,1.3663225E0,7.359097E-2,1.359601E0,-1.2534931E-1,3.8107944E-1,-3.8052816E-2,7.2251993E-1,1.0738133E0,1.8798222E-1,6.2689424E-1,-5.2589643E-1,7.610329E-2,2.0023923E-1,-1.524413E-1,-8.3125603E-1,-1.3884429E0,-5.5977637E-1,-1.7652136E-1,-1.0365325E0,-1.2592276E0,-9.511539E-1,-5.461045E-1,-1.2899159E0,-1.4704334E0,-1.4908085E0,-7.81685E-2,3.2782715E-2,4.9031287E-2,9.459372E-3,6.0095437E-2,6.84944E-2,1.7514821E-2,6.276824E-2,6.9022916E-2,-2.812246E-2,1.8490093E-2,7.113094E-3,2.5769074E-2,4.011776E-3,-5.009214E-2,5.282348E-2,3.0824855E-2,5.7325047E-2,4.7845542E-2,2.4538374E-2,-1.2809905E-2,3.368323E-2,1.3361745E-2,-2.1276517E-2,-6.275638E-2,2.0543909E-2,1.2656634E-3,-2.1329124E-2,-4.3633237E-4,-4.5616757E-2,-2.8665502E-2,-2.398002E-2,-7.40319E-2,6.0603257E-2,-2.885601E-2,-4.240325E-3,-5.7606936E-2,-4.985899E-2,-7.037461E-2,-6.1134227E-2,-7.871797E-2,-5.8943447E-2,-3.402468E-2,-4.28096E-3,-4.3888666E-2,-6.528471E-2,-2.2645405E-2,-6.436729E-2,-7.559808E-2,-7.209311E-2,-7.714339E-2],"categories":[],"categories_nodes":[],"categories_segments":[],"categories_sizes":[],"default_left":[0,0,0,0,0,0,0,0,0,0,0,0,0,0,0,0,0,0,0,0,0,0,0,0,0,0,0,0,0,0,0,0,0,0,0,0,0,0,0,0,0,0,0,0,0,0,0,0,0,0,0,0,0,0,0,0,0,0,0,0,0,0,0,0,0,0,0,0,0,0,0,0,0,0,0,0,0,0,0,0,0,0,0,0,0,0,0,0,0,0,0,0,0,0,0,0,0,0,0,0,0,0,0,0,0,0,0,0,0],"id":7,"left_children":[1,3,5,7,9,11,13,15,17,19,21,23,25,27,29,-1,31,33,35,37,-1,39,41,43,45,47,49,51,53,55,57,59,61,63,-1,65,67,69,71,73,75,77,79,81,-1,83,85,87,89,91,93,95,97,99,101,103,105,107,-1,-1,-1,-1,-1,-1,-1,-1,-1,-1,-1,-1,-1,-1,-1,-1,-1,-1,-1,-1,-1,-1,-1,-1,-1,-1,-1,-1,-1,-1,-1,-1,-1,-1,-1,-1,-1,-1,-1,-1,-1,-1,-1,-1,-1,-1,-1,-1,-1,-1,-1],"loss_changes":[3.2191988E4,1.0551133E3,2.07437E3,1.3692383E2,1.987052E2,1.6842807E2,2.3336133E2,2.9706299E1,1.3296875E1,5.4435097E1,1.19220215E2,9.552638E1,6.0802612E1,4.7724854E1,3.340918E1,0E0,3.0667603E1,2.6435547E0,5.421631E0,3.2128662E1,0E0,3.5552734E1,2.6459534E1,1.0088069E2,2.6900005E1,1.8757812E1,1.652221E1,1.7461914E1,1.6758179E1,1.7035645E1,3.8095703E0,1.2957153E1,3.3795166E0,1.2554932E0,0E0,2.8127441E0,9.2215776E-1,1.3837105E1,3.6215797E1,1.2912277E1,9.984741E0,2.297474E1,1.2629852E1,5.0279007E1,0E0,1.7255308E1,1.5821274E1,1.140271E1,5.2234344E0,1.0711044E1,1.5534935E1,7.3043823E0,1.01427E1,1.8098724E1,2.4723042E1,1.5244385E1,6.6240234E0,3.4267578E0,0E0,0E0,0E0,0E0,0E0,0E0,0E0,0E0,0E0,0E0,0E0,0E0,0E0,0E0,0E0,0E0,0E0,0E0,0E0,0E0,0E0,0E0,0E0,0E0,0E0,0E0,0E0,0E0,0E0,0E0,0E0,0E0,0E0,0E0,0E0,0E0,0E0,0E0,0E0,0E0,0E0,0E0,0E0,0E0,0E0,0E0,0E0,0E0,0E0,0E0,0E0],"parents":[2147483647,0,0,1,1,2,2,3,3,4,4,5,5,6,6,7,7,8,8,9,9,10,10,11,11,12,12,13,13,14,14,16,16,17,17,18,18,19,19,21,21,22,22,23,23,24,24,25,25,26,26,27,27,28,28,29,29,30,30,31,31,32,32,33,33,35,35,36,36,37,37,38,38,39,39,40,40,41,41,42,42,43,43,45,45,46,46,47,47,48,48,49,49,50,50,51,51,52,52,53,53,54,54,55,55,56,56,57,57],"right_children":[2,4,6,8,10,12,14,16,18,20,22,24,26,28,30,-1,32,34,36,38,-1,40,42,44,46,48,50,52,54,56,58,60,62,64,-1,66,68,70,72,74,76,78,80,82,-1,84,86,88,90,92,94,96,98,100,102,104,106,108,-1,-1,-1,-1,-1,-1,-1,-1,-1,-1,-1,-1,-1,-1,-1,-1,-1,-1,-1,-1,-1,-1,-1,-1,-1,-1,-1,-1,-1,-1,-1,-1,-1,-1,-1,-1,-1,-1,-1,-1,-1,-1,-1,-1,-1,-1,-1,-1,-1,-1,-1],"split_conditions":[3E0,1E0,7E0,5E0,2.619065E-1,5E0,1.1216666E1,2E0,3.3333334E-1,1E0,1.9666667E0,6.5240353E-1,8.9566857E-1,1.5710204E0,1.6783333E1,7.430676E-2,1.1E1,1.4E1,5.4762454E0,2E0,7.4895024E-2,8E0,1.5345808E1,1E0,3.95E0,8.2521737E-1,4E0,1.662561E1,4E0,4.7619048E-1,2.2016666E1,3E0,1.5395635E-1,1.672096E2,7.359097E-2,1.1E1,1.8189936E1,2.0984869E-1,1.7E1,1.1E0,1.4833333E0,2.0748976E-1,7.7840906E-1,1.7E1,7.610329E-2,-6.463342E-2,2.938006E1,5.8744804E1,-8.660254E-1,3.6689205E0,2.247763E1,8.034351E-1,7.1E1,8E0,3.398693E-1,4.546851E-1,5E0,4.7619048E-1,-7.81685E-2,3.2782715E-2,4.9031287E-2,9.459372E-3,6.0095437E-2,6.84944E-2,1.7514821E-2,6.276824E-2,6.9022916E-2,-2.812246E-2,1.8490093E-2,7.113094E-3,2.5769074E-2,4.011776E-3,-5.009214E-2,5.282348E-2,3.0824855E-2,5.7325047E-2,4.7845542E-2,2.4538374E-2,-1.2809905E-2,3.368323E-2,1.3361745E-2,-2.1276517E-2,-6.275638E-2,2.0543909E-2,1.2656634E-3,-2.1329124E-2,-4.3633237E-4,-4.5616757E-2,-2.8665502E-2,-2.398002E-2,-7.40319E-2,6.0603257E-2,-2.885601E-2,-4.240325E-3,-5.7606936E-2,-4.985899E-2,-7.037461E-2,-6.1134227E-2,-7.871797E-2,-5.8943447E-2,-3.402468E-2,-4.28096E-3,-4.3888666E-2,-6.528471E-2,-2.2645405E-2,-6.436729E-2,-7.559808E-2,-7.209311E-2,-7.714339E-2],"split_indices":[0,0,0,4,10,0,0,6,0,14,0,10,10,10,0,0,6,5,10,0,0,6,13,14,0,14,22,11,22,14,0,5,10,13,0,5,11,13,5,0,0,12,14,5,0,12,13,13,18,11,11,14,6,16,14,14,16,14,0,0,0,0,0,0,0,0,0,0,0,0,0,0,0,0,0,0,0,0,0,0,0,0,0,0,0,0,0,0,0,0,0,0,0,0,0,0,0,0,0,0,0,0,0,0,0,0,0,0,0],"split_type":[0,0,0,0,0,0,0,0,0,0,0,0,0,0,0,0,0,0,0,0,0,0,0,0,0,0,0,0,0,0,0,0,0,0,0,0,0,0,0,0,0,0,0,0,0,0,0,0,0,0,0,0,0,0,0,0,0,0,0,0,0,0,0,0,0,0,0,0,0,0,0,0,0,0,0,0,0,0,0,0,0,0,0,0,0,0,0,0,0,0,0,0,0,0,0,0,0,0,0,0,0,0,0,0,0,0,0,0,0],"sum_hessian":[2.3585248E4,1.1746532E4,1.1838716E4,8.350177E3,3.3963557E3,2.7230242E3,9.115691E3,1.6559877E3,6.694189E3,7.8171906E2,2.6146367E3,1.5854884E3,1.1375359E3,2.1094604E3,7.0062314E3,1.8784398E2,1.4681437E3,4.601932E3,2.0922568E3,7.4866534E2,3.305374E1,1.6852229E3,9.294138E2,7.17231E2,8.682573E2,6.3904315E2,4.984927E2,1.6424253E3,4.670352E2,2.324316E3,4.6819155E3,7.070079E2,7.6113574E2,4.7805933E2,4.1238726E3,2.089957E3,2.299733E0,4.327022E2,3.1596313E2,3.8208435E2,1.3031385E3,1.6889212E2,7.6052167E2,6.932621E2,2.3968925E1,4.675883E2,4.0066907E2,5.692292E2,6.981395E1,3.2478452E2,1.737082E2,5.955017E2,1.0469236E3,3.0566742E2,1.6136775E2,1.1981016E3,1.1262144E3,2.2168914E3,2.465024E3,1.7124861E2,5.357593E2,3.7200012E0,7.574158E2,4.7604056E2,2.0187757E0,3.586706E2,1.7312865E3,1.1492797E0,1.1504531E0,1.5648965E2,2.7621255E2,2.822399E2,3.372325E1,8.991293E1,2.9217142E2,7.980932E2,5.0504532E2,1.00368706E2,6.8523415E1,6.722312E2,8.8290474E1,6.10782E2,8.2480095E1,2.1152696E2,2.560613E2,1.371266E2,2.6354248E2,4.3116577E2,1.3806342E2,7.001033E0,6.281292E1,2.4806223E0,3.223039E2,1.5977515E2,1.3933056E1,5.4172205E2,5.3779655E1,9.425086E2,1.04415016E2,1.6418112E2,1.414863E2,6.809021E1,9.327754E1,1.1753849E3,2.2716663E1,2.1413737E2,9.1207697E2,1.1573977E3,1.0594937E3],"tree_param":{"num_deleted":"0","num_feature":"23","num_nodes":"109","size_leaf_vector":"1"}},{"base_weights":[1.8838807E-3,1.0558969E0,-1.2021571E0,1.3291345E0,5.267873E-1,-6.80473E-1,-1.3914406E0,1.0759156E0,1.3913676E0,8.246171E-1,2.1803111E-1,-7.1265477E-1,7.969194E-2,-1.2414834E0,-1.4741515E0,1.4425339E0,1.0233905E0,1.4148012E0,1.2878809E0,3.246427E-1,9.403297E-1,1.6702151E-1,7.630344E-2,-4.6085262E-1,-9.0847224E-1,-1.2462329E0,6.9701545E-2,-1.4325954E0,-7.601094E-2,1.4469496E0,2.2839699E-2,5.942612E-1,1.0828354E0,1.3561684E0,1.437384E0,1.2918123E0,4.1445205E-1,1.992192E-1,8.965633E-1,9.054679E-1,7.482858E-2,4.4630134E-1,-5.3625938E-2,-4.9921542E-1,1.6042097E0,-9.936067E-1,-6.4202714E-1,-1.2008333E0,-1.4544574E0,-1.4338757E0,3.960918E-2,7.254306E-2,2.1573117E-2,3.8454946E-2,6.9986293E-3,5.167646E-2,7.507237E-2,6.789519E-2,2.9804574E-3,7.208057E-2,6.347644E-2,6.588295E-2,5.811925E-2,-1.889361E-2,4.6474256E-2,6.953474E-2,7.239714E-3,-6.9885016E-3,4.860337E-2,4.798017E-2,1.2668031E-2,-1.1246296E-3,3.0624306E-2,6.2746997E-4,-5.791319E-2,-2.0145817E-2,-5.311941E-2,8.3938695E-2,2.0835415E-2,-4.678521E-2,-6.548879E-2,4.3310042E-2,-3.3618435E-2,-5.4764993E-2,-6.330418E-2,-7.549768E-2,-6.1655845E-2,-6.91695E-2,-7.5540744E-2],"categories":[],"categories_nodes":[],"categories_segments":[],"categories_sizes":[],"default_left":[0,0,0,0,0,0,0,0,0,0,0,0,0,0,0,0,0,0,0,0,0,0,0,0,0,0,0,0,0,0,0,0,0,0,0,0,0,0,0,0,0,0,0,0,0,0,0,0,0,0,0,0,0,0,0,0,0,0,0,0,0,0,0,0,0,0,0,0,0,0,0,0,0,0,0,0,0,0,0,0,0,0,0,0,0,0,0,0,0],"id":8,"left_children":[1,3,5,7,9,11,13,15,17,19,21,23,-1,25,27,29,31,33,35,37,39,41,-1,43,45,47,-1,49,-1,51,-1,53,55,57,59,61,63,65,67,69,-1,71,73,75,77,79,81,83,85,87,-1,-1,-1,-1,-1,-1,-1,-1,-1,-1,-1,-1,-1,-1,-1,-1,-1,-1,-1,-1,-1,-1,-1,-1,-1,-1,-1,-1,-1,-1,-1,-1,-1,-1,-1,-1,-1,-1,-1],"loss_changes":[2.9552104E4,1.7944229E3,1.0723838E3,1.2752832E2,3.888119E2,2.1308362E2,9.708008E1,2.9713379E1,1.4107422E1,1.2424231E2,1.3841702E2,1.4040735E2,0E0,3.7301758E1,7.6533203E0,2.1191406E-1,3.5583862E1,5.1289062E0,3.6673584E0,2.895396E1,3.25354E1,1.2335834E2,0E0,9.9944E1,3.578357E1,2.5069824E1,0E0,8.874512E0,0E0,1.6516113E-1,0E0,1.3792538E1,2.4168945E1,3.3032227E0,8.959961E-1,2.543213E0,3.1901608E0,2.1481121E1,5.829174E0,5.790454E1,0E0,6.884155E1,8.1812256E1,6.624631E1,1.342453E0,2.1017334E1,1.8503998E1,1.4689453E1,4.3171387E0,8.458008E0,0E0,0E0,0E0,0E0,0E0,0E0,0E0,0E0,0E0,0E0,0E0,0E0,0E0,0E0,0E0,0E0,0E0,0E0,0E0,0E0,0E0,0E0,0E0,0E0,0E0,0E0,0E0,0E0,0E0,0E0,0E0,0E0,0E0,0E0,0E0,0E0,0E0,0E0,0E0],"parents":[2147483647,0,0,1,1,2,2,3,3,4,4,5,5,6,6,7,7,8,8,9,9,10,10,11,11,13,13,14,14,15,15,16,16,17,17,18,18,19,19,20,20,21,21,23,23,24,24,25,25,27,27,29,29,31,31,32,32,33,33,34,34,35,35,36,36,37,37,38,38,39,39,41,41,42,42,43,43,44,44,45,45,46,46,47,47,48,48,49,49],"right_children":[2,4,6,8,10,12,14,16,18,20,22,24,-1,26,28,30,32,34,36,38,40,42,-1,44,46,48,-1,50,-1,52,-1,54,56,58,60,62,64,66,68,70,-1,72,74,76,78,80,82,84,86,88,-1,-1,-1,-1,-1,-1,-1,-1,-1,-1,-1,-1,-1,-1,-1,-1,-1,-1,-1,-1,-1,-1,-1,-1,-1,-1,-1,-1,-1,-1,-1,-1,-1,-1,-1,-1,-1,-1,-1],"split_conditions":[3.95E0,1E0,9E0,5E0,2E0,1.3883333E1,1.5333333E1,2E0,5E-1,2.1251981E-1,9E0,5.8333335E0,7.969194E-2,2.0266666E1,2.2016666E1,5.1211417E-1,4E0,1.3E1,6.18E2,1.8166667E0,6.983333E0,3E0,7.630344E-2,1.0516666E1,1.5710204E0,2.4E1,6.9701545E-2,2.6916666E1,-7.601094E-2,1.532524E2,2.2839699E-2,7.0710677E-1,5.8333335E0,5.4762454E0,3.5E0,2.5666666E0,8.3157897E-1,1.6666668E-2,2E0,4.85E0,7.482858E-2,1.6666668E-2,8.5714287E-1,9E-1,5E-1,7.906977E-1,1.5998771E0,1.1216666E1,7.4217105E-1,5.0689656E-1,3.960918E-2,7.254306E-2,2.1573117E-2,3.8454946E-2,6.9986293E-3,5.167646E-2,7.507237E-2,6.789519E-2,2.9804574E-3,7.208057E-2,6.347644E-2,6.588295E-2,5.811925E-2,-1.889361E-2,4.6474256E-2,6.953474E-2,7.239714E-3,-6.9885016E-3,4.860337E-2,4.798017E-2,1.2668031E-2,-1.1246296E-3,3.0624306E-2,6.2746997E-4,-5.791319E-2,-2.0145817E-2,-5.311941E-2,8.3938695E-2,2.0835415E-2,-4.678521E-2,-6.548879E-2,4.3310042E-2,-3.3618435E-2,-5.4764993E-2,-6.330418E-2,-7.549768E-2,-6.1655845E-2,-6.91695E-2,-7.5540744E-2],"split_indices":[0,0,0,4,0,1,0,3,0,10,1,0,0,1,0,10,6,4,6,2,1,1,0,1,10,6,0,1,0,13,0,21,1,10,1,1,14,1,17,1,0,2,14,8,8,14,10,0,10,14,0,0,0,0,0,0,0,0,0,0,0,0,0,0,0,0,0,0,0,0,0,0,0,0,0,0,0,0,0,0,0,0,0,0,0,0,0,0,0],"split_type":[0,0,0,0,0,0,0,0,0,0,0,0,0,0,0,0,0,0,0,0,0,0,0,0,0,0,0,0,0,0,0,0,0,0,0,0,0,0,0,0,0,0,0,0,0,0,0,0,0,0,0,0,0,0,0,0,0,0,0,0,0,0,0,0,0,0,0,0,0,0,0,0,0,0,0,0,0,0,0,0,0,0,0,0,0,0,0,0,0],"sum_hessian":[2.3284336E4,1.2415755E4,1.0868582E4,8.1865986E3,4.2291562E3,2.894806E3,7.973776E3,1.6186799E3,6.567919E3,2.1518171E3,2.0773389E3,2.8550925E3,3.971316E1,2.8402795E3,5.1334966E3,1.9952919E2,1.4191508E3,5.3449307E3,1.2229883E3,4.0512915E2,1.746688E3,2.0004547E3,7.688414E1,1.2504674E3,1.6046252E3,2.8356968E3,4.5829563E0,2.7157688E3,2.4177275E3,1.9817354E2,1.3556471E0,1.7400636E2,1.2451444E3,1.5031791E3,3.8417515E3,1.2170314E3,5.9569244E0,3.3336893E2,7.176024E1,1.6461458E3,1.0054223E2,8.8246747E2,1.1179872E3,1.2284055E3,2.2061909E1,1.2139994E3,3.906259E2,2.3336538E3,5.020428E2,2.714562E3,1.2067477E0,1.9698602E2,1.1875124E0,1.2514864E2,4.885772E1,1.1170424E3,1.28102E2,1.5011226E3,2.0564723E0,3.7399736E3,1.0177789E2,1.0067933E3,2.1023804E2,2.4516435E0,3.5052812E0,1.3490091E1,3.1987885E2,4.8153863E0,6.694485E1,1.5195288E3,1.26617E2,2.3118312E2,6.5128436E2,1.0557303E3,6.225681E1,1.050493E3,1.7791243E2,2.0369207E1,1.6927019E0,1.0294313E3,1.8456815E2,7.1601205E0,3.8346576E2,8.983982E2,1.4352557E3,3.9674564E2,1.0529716E2,1.6505128E3,1.0640493E3],"tree_param":{"num_deleted":"0","num_feature":"23","num_nodes":"89","size_leaf_vector":"1"}},{"base_weights":[3.3491128E-4,1.1018174E0,-1.0799066E0,1.297084E0,6.387285E-1,-4.3038502E-1,-1.3219587E0,1.0461924E0,1.3591278E0,2.1802698E-1,7.5156534E-1,-4.6644711E-1,1.4369278E0,-1.1094302E0,-1.4121674E0,7.0964135E-2,9.9744964E-1,1.293598E0,1.3957359E0,7.173696E-2,1.5985931E-1,9.263645E-1,5.138017E-1,-7.885679E-2,-6.695054E-1,1.4968865E0,-4.245149E-2,-1.1197273E0,1.4520671E0,-1.3400486E0,-1.4611294E0,9.470413E-1,7.350097E-2,1.2953331E0,2.9903528E-1,1.4060268E0,1.2090422E0,5.247284E-1,3.2010946E-2,6.7514503E-1,1.0171155E0,4.5637566E-1,7.5045854E-2,7.357918E-2,-1.10910475E-1,-9.0139544E-1,-4.51906E-1,7.7255115E-2,5.8494055E-1,-1.1849344E0,-8.962476E-1,-7.5555476E-3,8.338251E-2,-1.342153E0,6.211215E-2,-7.13178E-2,-7.4181795E-2,2.6244445E-2,5.041423E-2,5.9148993E-2,6.574295E-2,4.2359468E-2,-3.0119587E-2,7.050048E-2,6.349626E-2,6.2443204E-2,1.620826E-2,3.270752E-2,-3.944615E-3,1.040881E-2,-1.749204E-2,2.8959056E-2,7.162584E-2,5.7924356E-2,4.3351535E-2,2.684269E-2,-1.0283674E-2,-1.9325925E-2,6.4848163E-3,-3.976659E-2,-6.3075624E-2,-1.4772688E-2,-3.510281E-2,-2.5760332E-2,5.6700945E-2,-5.6570124E-2,-6.801629E-2,-3.9212838E-2,-5.5689223E-2,-6.428187E-2,-7.176469E-2],"categories":[],"categories_nodes":[],"categories_segments":[],"categories_sizes":[],"default_left":[0,0,0,0,0,0,0,0,0,0,0,0,0,0,0,0,0,0,0,0,0,0,0,0,0,0,0,0,0,0,0,0,0,0,0,0,0,0,0,0,0,0,0,0,0,0,0,0,0,0,0,0,0,0,0,0,0,0,0,0,0,0,0,0,0,0,0,0,0,0,0,0,0,0,0,0,0,0,0,0,0,0,0,0,0,0,0,0,0,0,0],"id":9,"left_children":[1,3,5,7,9,11,13,15,17,19,21,23,25,27,29,-1,31,33,35,-1,37,39,41,43,45,47,-1,49,51,53,55,57,-1,59,61,63,65,67,69,71,73,75,-1,-1,77,79,81,-1,83,85,87,-1,-1,89,-1,-1,-1,-1,-1,-1,-1,-1,-1,-1,-1,-1,-1,-1,-1,-1,-1,-1,-1,-1,-1,-1,-1,-1,-1,-1,-1,-1,-1,-1,-1,-1,-1,-1,-1,-1,-1],"loss_changes":[2.7166027E4,1.0213828E3,1.8116367E3,1.2233789E2,1.590924E2,2.1149939E2,1.5941699E2,2.7329346E1,1.3479492E1,5.008452E1,1.0944934E2,2.4174701E2,9.434845E0,6.774365E1,1.8845703E1,0E0,3.1990723E1,3.5769043E0,6.1293945E0,0E0,3.1685364E1,3.4036377E1,6.296643E1,5.2710777E1,1.01315125E2,1.6641998E0,0E0,3.5329346E1,3.871315E0,1.4677734E1,6.2109375E-1,3.228247E1,0E0,3.4746094E0,3.1295602E0,2.9882812E-1,7.3479614E0,1.3822624E1,3.3998528E1,2.8762497E1,2.2693481E1,5.6725143E1,0E0,0E0,6.880792E1,3.6233948E1,4.0573685E1,0E0,3.3279185E0,1.6582764E1,1.2968445E1,0E0,0E0,1.0750488E1,0E0,0E0,0E0,0E0,0E0,0E0,0E0,0E0,0E0,0E0,0E0,0E0,0E0,0E0,0E0,0E0,0E0,0E0,0E0,0E0,0E0,0E0,0E0,0E0,0E0,0E0,0E0,0E0,0E0,0E0,0E0,0E0,0E0,0E0,0E0,0E0,0E0],"parents":[2147483647,0,0,1,1,2,2,3,3,4,4,5,5,6,6,7,7,8,8,9,9,10,10,11,11,12,12,13,13,14,14,16,16,17,17,18,18,20,20,21,21,22,22,23,23,24,24,25,25,27,27,28,28,29,29,30,30,31,31,33,33,34,34,35,35,36,36,37,37,38,38,39,39,40,40,41,41,44,44,45,45,46,46,48,48,49,49,50,50,53,53],"right_children":[2,4,6,8,10,12,14,16,18,20,22,24,26,28,30,-1,32,34,36,-1,38,40,42,44,46,48,-1,50,52,54,56,58,-1,60,62,64,66,68,70,72,74,76,-1,-1,78,80,82,-1,84,86,88,-1,-1,90,-1,-1,-1,-1,-1,-1,-1,-1,-1,-1,-1,-1,-1,-1,-1,-1,-1,-1,-1,-1,-1,-1,-1,-1,-1,-1,-1,-1,-1,-1,-1,-1,-1,-1,-1,-1,-1],"split_conditions":[3E0,1E0,7.75E0,5E0,2.1251981E-1,1.235E1,1.3133333E1,1.6666668E-2,1.3E1,1.6666668E-2,1.8333334E0,4.7166667E0,6.4E1,1.8E1,1.9083334E1,7.0964135E-2,5.8333335E0,5.4762454E0,6.166667E-1,7.173696E-2,-3.9097935E-1,5E0,7.866667E0,1.6666668E-2,7.189885E-1,7.5E0,-4.245149E-2,1.5710204E0,1.2697977E1,2.4283333E1,2.375E1,3E0,7.350097E-2,1E1,1E1,3.4E0,3.95E0,9.9E1,1.6E1,6.6E0,1.6166667E0,5.5E0,7.5045854E-2,7.357918E-2,2.0199198E1,4.8E1,6.1833334E0,7.7255115E-2,1.3316667E1,2.4E1,4.814815E-1,-7.5555476E-3,8.338251E-2,5.4545456E-1,6.211215E-2,-7.13178E-2,-7.4181795E-2,2.6244445E-2,5.041423E-2,5.9148993E-2,6.574295E-2,4.2359468E-2,-3.0119587E-2,7.050048E-2,6.349626E-2,6.2443204E-2,1.620826E-2,3.270752E-2,-3.944615E-3,1.040881E-2,-1.749204E-2,2.8959056E-2,7.162584E-2,5.7924356E-2,4.3351535E-2,2.684269E-2,-1.0283674E-2,-1.9325925E-2,6.4848163E-3,-3.976659E-2,-6.3075624E-2,-1.4772688E-2,-3.510281E-2,-2.5760332E-2,5.6700945E-2,-5.6570124E-2,-6.801629E-2,-3.9212838E-2,-5.5689223E-2,-6.428187E-2,-7.176469E-2],"split_indices":[0,0,0,4,10,1,0,1,4,1,0,1,6,1,0,0,1,10,0,0,12,5,1,1,10,0,0,10,13,1,1,5,0,3,17,1,1,6,17,1,1,1,0,0,13,6,0,0,1,6,14,0,0,14,0,0,0,0,0,0,0,0,0,0,0,0,0,0,0,0,0,0,0,0,0,0,0,0,0,0,0,0,0,0,0,0,0,0,0,0,0],"split_type":[0,0,0,0,0,0,0,0,0,0,0,0,0,0,0,0,0,0,0,0,0,0,0,0,0,0,0,0,0,0,0,0,0,0,0,0,0,0,0,0,0,0,0,0,0,0,0,0,0,0,0,0,0,0,0,0,0,0,0,0,0,0,0,0,0,0,0,0,0,0,0,0,0,0,0,0,0,0,0,0,0,0,0,0,0,0,0,0,0,0,0],"sum_hessian":[2.2829145E4,1.1303432E4,1.1525713E4,7.949594E3,3.3538376E3,3.1298535E3,8.395859E3,1.5796594E3,6.369935E3,7.099159E2,2.6439219E3,3.07129E3,5.856345E1,2.505737E3,5.890122E3,1.7928035E2,1.4003792E3,2.2961257E3,4.073809E3,3.131085E1,6.7860504E2,1.5220468E3,1.1218751E3,1.0563519E3,2.0149381E3,5.7403E1,1.1604521E0,2.4962651E3,9.47202E0,2.3932844E3,3.4968374E3,1.2681151E3,1.32264E2,2.291825E3,4.3007693E0,3.8547932E3,2.1901581E2,1.7527623E2,5.033288E2,4.0615536E2,1.1158914E3,1.0615795E3,6.029568E1,2.048693E1,1.035865E3,9.739173E2,1.0410209E3,5.386101E1,3.5419872E0,1.9290911E3,5.67174E2,1.1581938E0,8.313827E0,2.3918157E3,1.4688892E0,1.3992756E3,2.0975618E3,1.618749E2,1.1062402E3,3.4844025E2,1.9433848E3,2.7118642E0,1.5889049E0,3.7361052E3,1.1868799E2,2.091903E2,9.825488E0,1.442615E2,3.101473E1,3.4473975E2,1.5858902E2,3.6204648E2,4.410887E1,5.7116595E2,5.447254E2,9.4668976E2,1.1488968E2,4.825322E2,5.533328E2,7.5481396E2,2.1910332E2,6.417993E2,3.9922153E2,1.1997752E0,2.342212E0,1.483697E3,4.4539404E2,3.774584E2,1.8971559E2,1.4977949E3,8.940206E2],"tree_param":{"num_deleted":"0","num_feature":"23","num_nodes":"91","size_leaf_vector":"1"}},{"base_weights":[-3.0256605E-3,1.0693127E0,-1.048325E0,1.2652494E0,6.078512E-1,-4.287427E-1,-1.2848197E0,1.0148716E0,1.3279159E0,1.04020864E-1,7.016099E-1,-4.6538478E-1,1.4194511E0,-1.0597467E0,-1.3694605E0,6.951535E-2,9.655073E-1,1.3610548E0,1.2535272E0,-6.272621E-2,3.395969E-1,8.556516E-1,4.171069E-1,-8.925567E-2,-6.6117656E-1,7.492425E-2,2.813838E-1,-1.0713177E0,8.2012974E-2,-1.2938235E0,-1.4189869E0,9.128089E-1,1.4244438E0,1.2982466E0,1.380068E0,1.2807603E0,1.1007857E0,-1.2238015E-1,1.1443484E0,4.7815162E-1,-4.1467436E-2,8.2062316E-1,7.206829E-2,3.5466173E-1,7.37861E-2,-4.4447362E-1,7.672E-2,-5.74869E-1,-1.024865E0,-5.035733E-2,5.80585E-2,-1.0205264E0,-1.2858337E0,-1.2958841E0,6.025129E-2,-1.3776561E0,-7.2195284E-2,3.155533E-2,5.092094E-2,7.15661E-2,1.40328575E-2,6.525832E-2,4.41106E-2,6.918465E-2,5.7572275E-2,6.432941E-2,3.035684E-2,5.134781E-2,7.009811E-2,1.8627987E-3,-1.904783E-2,-1.7960612E-2,6.875195E-2,-1.2886594E-2,2.7358769E-2,2.0721246E-2,-2.1143591E-2,4.4178855E-2,5.3820927E-3,2.1962764E-2,-1.936748E-2,-2.386726E-2,8.079719E-2,8.924432E-3,-2.5436515E-2,-3.829911E-2,-1.8834077E-2,-6.1136823E-2,-3.522315E-2,-4.5204353E-2,-5.5535775E-2,-4.692301E-2,-6.684861E-2,-6.653356E-2,-5.8205552E-2,-5.7421993E-2,-6.924662E-2],"categories":[],"categories_nodes":[],"categories_segments":[],"categories_sizes":[],"default_left":[0,0,0,0,0,0,0,0,0,0,0,0,0,0,0,0,0,0,0,0,0,0,0,0,0,0,0,0,0,0,0,0,0,0,0,0,0,0,0,0,0,0,0,0,0,0,0,0,0,0,0,0,0,0,0,0,0,0,0,0,0,0,0,0,0,0,0,0,0,0,0,0,0,0,0,0,0,0,0,0,0,0,0,0,0,0,0,0,0,0,0,0,0,0,0,0,0],"id":10,"left_children":[1,3,5,7,9,11,13,15,17,19,21,23,25,27,29,-1,31,33,35,37,39,41,43,45,47,-1,49,51,-1,53,55,57,59,61,63,65,67,69,71,73,75,77,-1,79,-1,81,83,85,87,-1,-1,89,91,93,-1,95,-1,-1,-1,-1,-1,-1,-1,-1,-1,-1,-1,-1,-1,-1,-1,-1,-1,-1,-1,-1,-1,-1,-1,-1,-1,-1,-1,-1,-1,-1,-1,-1,-1,-1,-1,-1,-1,-1,-1,-1,-1],"loss_changes":[2.5081822E4,9.979131E2,1.65975E3,1.2028711E2,1.5552832E2,2.1274603E2,1.5476758E2,2.7497314E1,1.3571289E1,2.0368315E1,1.2134473E2,2.261424E2,5.07666E0,7.1908936E1,2.047461E1,0E0,3.204077E1,3.3139648E0,6.5874023E0,2.2040232E1,1.1362871E1,3.57594E1,6.4086716E1,6.2097996E1,6.2813843E1,0E0,7.0651226E0,2.3055176E1,0E0,1.3755127E1,1.706543E0,3.6229004E1,7.0132446E-1,1.7573242E0,1.1137695E0,5.600342E0,5.1872253E0,1.2014624E1,5.4954395E0,8.147675E0,1.0296051E1,7.6267944E1,0E0,5.818502E1,0E0,2.3486298E1,4.288801E1,6.1630554E1,2.3618866E1,0E0,0E0,1.8036621E1,6.282837E0,9.299316E0,0E0,6.970215E-1,0E0,0E0,0E0,0E0,0E0,0E0,0E0,0E0,0E0,0E0,0E0,0E0,0E0,0E0,0E0,0E0,0E0,0E0,0E0,0E0,0E0,0E0,0E0,0E0,0E0,0E0,0E0,0E0,0E0,0E0,0E0,0E0,0E0,0E0,0E0,0E0,0E0,0E0,0E0,0E0,0E0],"parents":[2147483647,0,0,1,1,2,2,3,3,4,4,5,5,6,6,7,7,8,8,9,9,10,10,11,11,12,12,13,13,14,14,16,16,17,17,18,18,19,19,20,20,21,21,22,22,23,23,24,24,26,26,27,27,29,29,30,30,31,31,32,32,33,33,34,34,35,35,36,36,37,37,38,38,39,39,40,40,41,41,43,43,45,45,46,46,47,47,48,48,51,51,52,52,53,53,55,55],"right_children":[2,4,6,8,10,12,14,16,18,20,22,24,26,28,30,-1,32,34,36,38,40,42,44,46,48,-1,50,52,-1,54,56,58,60,62,64,66,68,70,72,74,76,78,-1,80,-1,82,84,86,88,-1,-1,90,92,94,-1,96,-1,-1,-1,-1,-1,-1,-1,-1,-1,-1,-1,-1,-1,-1,-1,-1,-1,-1,-1,-1,-1,-1,-1,-1,-1,-1,-1,-1,-1,-1,-1,-1,-1,-1,-1,-1,-1,-1,-1,-1,-1],"split_conditions":[3E0,1E0,7.75E0,5E0,1.6666668E-2,1.235E1,1.2866667E1,1.6666668E-2,3.3333334E-1,1.9897715E0,2E0,4.7166667E0,7.5E0,1.7816668E1,1.88E1,6.951535E-2,5.6666665E0,1.3E1,2.6333334E0,2.0039268E1,4.61E0,6.983333E0,7.866667E0,1.6666668E-2,7E-1,7.492425E-2,1.2633333E1,2.4E1,8.2012974E-2,2.375E1,2.31E1,4E-1,1.8E0,2.04E2,4.05E0,1.695E1,6E0,5E-1,-3.565184E0,2E0,-2.4492937E-16,4.85E0,7.206829E-2,5.8333335E0,7.37861E-2,2.5169264E1,1.1E0,2.725369E1,-1.8369701E-16,-5.035733E-2,5.80585E-2,9.966666E0,9E0,4.9617534E0,6.025129E-2,-5.2051663E0,-7.2195284E-2,3.155533E-2,5.092094E-2,7.15661E-2,1.40328575E-2,6.525832E-2,4.41106E-2,6.918465E-2,5.7572275E-2,6.432941E-2,3.035684E-2,5.134781E-2,7.009811E-2,1.8627987E-3,-1.904783E-2,-1.7960612E-2,6.875195E-2,-1.2886594E-2,2.7358769E-2,2.0721246E-2,-2.1143591E-2,4.4178855E-2,5.3820927E-3,2.1962764E-2,-1.936748E-2,-2.386726E-2,8.079719E-2,8.924432E-3,-2.5436515E-2,-3.829911E-2,-1.8834077E-2,-6.1136823E-2,-3.522315E-2,-4.5204353E-2,-5.5535775E-2,-4.692301E-2,-6.684861E-2,-6.653356E-2,-5.8205552E-2,-5.7421993E-2,-6.924662E-2],"split_indices":[0,0,0,4,2,1,0,1,0,13,0,1,0,1,0,0,1,4,1,11,15,1,1,2,8,0,1,6,0,1,1,8,8,6,1,15,1,21,12,17,18,1,0,1,0,11,8,13,19,0,0,0,1,15,0,12,0,0,0,0,0,0,0,0,0,0,0,0,0,0,0,0,0,0,0,0,0,0,0,0,0,0,0,0,0,0,0,0,0,0,0,0,0,0,0,0,0],"split_type":[0,0,0,0,0,0,0,0,0,0,0,0,0,0,0,0,0,0,0,0,0,0,0,0,0,0,0,0,0,0,0,0,0,0,0,0,0,0,0,0,0,0,0,0,0,0,0,0,0,0,0,0,0,0,0,0,0,0,0,0,0,0,0,0,0,0,0,0,0,0,0,0,0,0,0,0,0,0,0,0,0,0,0,0,0,0,0,0,0,0,0,0,0,0,0,0,0],"sum_hessian":[2.2374213E4,1.1044253E4,1.132996E4,7.7513037E3,3.2929495E3,3.130724E3,8.199236E3,1.5551294E3,6.1961743E3,5.169781E2,2.7759712E3,3.070595E3,6.0129017E1,2.2444402E3,5.954796E3,1.7755867E2,1.3775708E3,4.2746123E3,1.9215621E3,3.031407E2,2.1383742E2,1.7995908E3,9.7638043E2,1.051688E3,2.018907E3,5.5928337E1,4.2006807E0,2.2354631E3,8.976955E0,2.3670132E3,3.5877827E3,1.238362E3,1.3920872E2,1.00940717E3,3.265205E3,1.6245295E3,2.9703253E2,2.897212E2,1.3419486E1,1.5663153E2,5.7205894E1,1.7003054E3,9.9285355E1,9.232549E2,5.3125546E1,3.3437885E2,7.173092E2,1.6337737E3,3.8513336E2,1.6456732E0,2.5550075E0,1.8121537E3,4.2330945E2,2.365544E3,1.4694031E0,1.3706589E3,2.2171238E3,3.3957095E2,8.9879114E2,1.3812672E2,1.081998E0,9.907906E2,1.8616545E1,3.2092642E3,5.594086E1,1.6096937E3,1.4835795E1,2.4209573E2,5.4936802E1,1.7966078E2,1.1006042E2,1.710957E0,1.17085285E1,1.3197282E1,1.4343425E2,2.6018923E1,3.1186972E1,1.5621348E3,1.3817067E2,8.2913666E2,9.411826E1,3.2988425E2,4.4945984E0,6.1167676E2,1.0563246E2,8.302724E2,8.035013E2,2.363524E2,1.4878096E2,7.957802E2,1.01637354E3,5.6803932E1,3.6650552E2,1.8642893E3,5.0125458E2,4.7058937E1,1.3236001E3],"tree_param":{"num_deleted":"0","num_feature":"23","num_nodes":"97","size_leaf_vector":"1"}},{"base_weights":[3.642883E-3,9.592569E-1,-1.088778E0,1.2351758E0,4.5236644E-1,-6.0161537E-1,-1.2691606E0,9.672547E-1,1.3029261E0,7.280872E-1,1.7666283E-1,-6.308786E-1,1.4900557E0,-1.1234871E0,-1.3596265E0,6.816199E-2,9.156714E-1,1.3362709E0,1.2290851E0,3.1884E-1,8.2576215E-1,1.2748058E-1,7.271672E-2,-4.2943895E-1,-8.056748E-1,7.541325E-2,2.3358634E-2,-1.1280643E0,7.5435355E-2,-1.3167804E0,-1.4074442E0,8.62995E-1,7.027372E-2,1.3475907E0,1.2387128E0,1.2461125E0,1.0196087E0,2.7804554E-1,6.617432E-2,7.92436E-1,7.0238344E-2,3.6859366E-1,-5.9068237E-2,-4.6514764E-1,1.5404925E0,-7.467448E-1,-1.2435464E0,-1.0586911E0,-1.2611741E0,-1.2767143E0,-1.3912606E0,4.0055893E-2,-7.045197E-2,4.6136916E-2,1.8604701E-2,5.334806E-2,6.749203E-2,1.708366E-2,6.231425E-2,6.288766E-2,4.9188554E-2,3.8671985E-2,6.8778865E-2,4.7595007E-3,2.3165716E-2,4.2889163E-2,1.1236741E-2,3.1277147E-4,2.5244102E-2,1.2434523E-3,-3.9766576E-2,-1.8920718E-2,-4.9202792E-2,8.161402E-2,-6.346275E-3,-3.0693829E-2,-4.2765718E-2,-1.6984025E-2,-6.321207E-2,-4.6095874E-2,-5.593912E-2,2.0163728E-2,-6.3319184E-2,-6.615567E-2,-5.991385E-2,-4.7986157E-2,-6.992539E-2],"categories":[],"categories_nodes":[],"categories_segments":[],"categories_sizes":[],"default_left":[0,0,0,0,0,0,0,0,0,0,0,0,0,0,0,0,0,0,0,0,0,0,0,0,0,0,0,0,0,0,0,0,0,0,0,0,0,0,0,0,0,0,0,0,0,0,0,0,0,0,0,0,0,0,0,0,0,0,0,0,0,0,0,0,0,0,0,0,0,0,0,0,0,0,0,0,0,0,0,0,0,0,0,0,0,0,0],"id":11,"left_children":[1,3,5,7,9,11,13,15,17,19,21,23,25,27,29,-1,31,33,35,37,39,41,-1,43,45,-1,-1,47,-1,49,51,53,-1,55,57,59,61,63,-1,65,-1,67,69,71,73,75,77,79,81,83,85,-1,-1,-1,-1,-1,-1,-1,-1,-1,-1,-1,-1,-1,-1,-1,-1,-1,-1,-1,-1,-1,-1,-1,-1,-1,-1,-1,-1,-1,-1,-1,-1,-1,-1,-1,-1],"loss_changes":[2.2879729E4,1.6344746E3,8.978906E2,1.3613574E2,3.1322485E2,1.7019934E2,9.681152E1,3.003711E1,1.3225586E1,8.210889E1,1.2941666E2,9.570276E1,1.1566162E-2,3.621338E1,7.567383E0,0E0,3.3828857E1,2.9125977E0,5.474365E0,1.597179E1,3.0976074E1,8.940033E1,0E0,9.001512E1,3.672815E1,0E0,0E0,2.5076172E1,0E0,5.508301E0,8.734375E0,3.5696716E1,0E0,8.9990234E-1,2.5880127E0,4.090088E0,1.1875397E1,1.2978226E1,0E0,5.822815E1,0E0,4.2807724E1,6.9308464E1,5.5779175E1,3.7018356E0,1.8065735E1,2.780487E0,1.4473145E1,8.96228E0,4.2348633E0,1.2930908E0,0E0,0E0,0E0,0E0,0E0,0E0,0E0,0E0,0E0,0E0,0E0,0E0,0E0,0E0,0E0,0E0,0E0,0E0,0E0,0E0,0E0,0E0,0E0,0E0,0E0,0E0,0E0,0E0,0E0,0E0,0E0,0E0,0E0,0E0,0E0,0E0],"parents":[2147483647,0,0,1,1,2,2,3,3,4,4,5,5,6,6,7,7,8,8,9,9,10,10,11,11,12,12,13,13,14,14,16,16,17,17,18,18,19,19,20,20,21,21,23,23,24,24,27,27,29,29,30,30,31,31,33,33,34,34,35,35,36,36,37,37,39,39,41,41,42,42,43,43,44,44,45,45,46,46,47,47,48,48,49,49,50,50],"right_children":[2,4,6,8,10,12,14,16,18,20,22,24,26,28,30,-1,32,34,36,38,40,42,-1,44,46,-1,-1,48,-1,50,52,54,-1,56,58,60,62,64,-1,66,-1,68,70,72,74,76,78,80,82,84,86,-1,-1,-1,-1,-1,-1,-1,-1,-1,-1,-1,-1,-1,-1,-1,-1,-1,-1,-1,-1,-1,-1,-1,-1,-1,-1,-1,-1,-1,-1,-1,-1,-1,-1,-1,-1],"split_conditions":[4E0,1E0,8.966666E0,1E0,2E0,1.3883333E1,1.5933333E1,1.6666668E-2,3.3333334E-1,1.3333334E-1,9E0,6E0,1.2E0,2.0883333E1,2.31E1,6.816199E-2,5.8333335E0,1.9166666E0,4E0,6.712329E-1,6.983333E0,3E0,7.271672E-2,1.0766666E1,7.9346424E-1,7.541325E-2,2.3358634E-2,5.813953E-1,7.5435355E-2,5.0689656E-1,1.82E1,3.5E0,7.027372E-2,7E0,4E0,4.9617534E0,6E0,4E-1,6.617432E-2,4.3E0,7.0238344E-2,5E-2,1.6E1,9E0,1.3666667E0,1.2E1,6.0333333E0,1.1E1,3.6689205E0,-5.217E0,7.4513283E0,4.0055893E-2,-7.045197E-2,4.6136916E-2,1.8604701E-2,5.334806E-2,6.749203E-2,1.708366E-2,6.231425E-2,6.288766E-2,4.9188554E-2,3.8671985E-2,6.8778865E-2,4.7595007E-3,2.3165716E-2,4.2889163E-2,1.1236741E-2,3.1277147E-4,2.5244102E-2,1.2434523E-3,-3.9766576E-2,-1.8920718E-2,-4.9202792E-2,8.161402E-2,-6.346275E-3,-3.0693829E-2,-4.2765718E-2,-1.6984025E-2,-6.321207E-2,-4.6095874E-2,-5.593912E-2,2.0163728E-2,-6.3319184E-2,-6.615567E-2,-5.991385E-2,-4.7986157E-2,-6.992539E-2],"split_indices":[0,0,0,7,0,1,0,1,0,9,1,0,9,1,1,0,1,1,1,14,1,1,0,1,14,0,0,14,0,14,0,1,0,5,3,15,1,7,0,1,0,14,5,5,9,17,1,0,11,15,11,0,0,0,0,0,0,0,0,0,0,0,0,0,0,0,0,0,0,0,0,0,0,0,0,0,0,0,0,0,0,0,0,0,0,0,0],"split_type":[0,0,0,0,0,0,0,0,0,0,0,0,0,0,0,0,0,0,0,0,0,0,0,0,0,0,0,0,0,0,0,0,0,0,0,0,0,0,0,0,0,0,0,0,0,0,0,0,0,0,0,0,0,0,0,0,0,0,0,0,0,0,0,0,0,0,0,0,0,0,0,0,0,0,0,0,0,0,0,0,0,0,0,0,0,0,0],"sum_hessian":[2.1914861E4,1.1689441E4,1.0225419E4,7.5683022E3,4.1211396E3,2.764263E3,7.4611562E3,1.5306324E3,6.03767E3,2.0596855E3,2.061454E3,2.7268123E3,3.7450737E1,2.863537E3,4.597619E3,1.7347835E2,1.357154E3,4.1476123E3,1.8900576E3,3.9768683E2,1.6619987E3,1.9861016E3,7.535253E1,1.2684614E3,1.4583507E3,3.632948E1,1.1212583E0,2.859137E3,4.400321E0,2.4399165E3,2.1577026E3,1.2278641E3,1.2929001E2,3.7049126E3,4.4269962E2,1.7433964E3,1.466613E2,3.833955E2,1.4291313E1,1.5737839E3,8.821467E1,8.659244E2,1.1201772E3,1.2466278E3,2.1833582E1,1.2877474E3,1.7060327E2,1.885447E3,9.736899E2,1.5982754E3,8.416411E2,1.1955063E0,2.156507E3,1.0938604E3,1.340038E2,3.324728E1,3.6716653E3,4.0917234E0,4.3860788E2,1.6656914E3,7.7704994E1,8.85781E1,5.80832E1,1.937163E2,1.8967921E2,1.4108698E3,1.6291415E2,2.3696681E2,6.289576E2,1.00640845E3,1.137688E2,1.069581E3,1.7704674E2,2.071437E1,1.1192101E0,5.820652E2,7.0568225E2,4.20849E0,1.6639479E2,5.805045E2,1.3049425E3,2.7995965E0,9.7089026E2,9.942581E2,6.040173E2,1.6104546E1,8.2553656E2],"tree_param":{"num_deleted":"0","num_feature":"23","num_nodes":"87","size_leaf_vector":"1"}},{"base_weights":[-1.2911658E-3,1.0070179E0,-9.7373134E-1,1.2025213E0,5.673947E-1,-3.9776924E-1,-1.2115722E0,9.352834E-1,1.2711945E0,1.9219713E-1,6.9358164E-1,-4.2896348E-1,1.3322978E0,-9.9888045E-1,-1.3085232E0,1.3297293E0,8.812971E-1,1.2916734E0,1.127592E0,6.849431E-2,1.4653501E-1,7.9025126E-1,3.7118986E-1,-8.412183E-2,-6.031151E-1,1.4078596E0,-2.5265863E-2,-1.0079758E0,7.796693E-2,-1.2254758E0,-1.3558123E0,1.3396361E0,4.2354787E-4,8.266149E-1,6.888763E-2,1.176001E0,1.3094177E0,1.1693043E0,9.070406E-1,4.472554E-1,3.194306E-2,6.559847E-1,9.330672E-1,3.0859247E-1,6.9123425E-2,-4.2329276E-1,7.58832E-2,-8.080965E-1,-4.1207072E-1,7.1919166E-2,7.137327E-1,-1.0748258E0,-7.829891E-1,-1.1774421E0,-1.3207296E0,1.2199588E-2,-1.3568225E0,6.721623E-2,1.5504762E-2,4.332875E-2,4.0818416E-3,5.89179E-2,-1.8294201E-3,6.596715E-2,5.892648E-2,5.860394E-2,-5.879439E-3,5.081593E-2,1.1632873E-2,3.7054278E-2,1.135134E-2,8.212994E-3,-1.4048353E-2,3.0386237E-2,6.8032615E-2,5.129224E-2,3.529969E-2,1.8282307E-2,-2.4296938E-2,-6.64898E-3,-2.679337E-2,7.5711445E-3,-3.7106737E-2,-3.4984723E-2,-5.888902E-2,-9.349584E-3,-2.9548828E-2,-1.8474586E-2,6.12168E-2,-5.1129587E-2,-6.2282242E-2,-4.6492048E-2,-2.9256353E-2,-6.091511E-2,-5.2830137E-2,-3.1095332E-2,-6.6563725E-2,-6.860158E-2,-6.505397E-2],"categories":[],"categories_nodes":[],"categories_segments":[],"categories_sizes":[],"default_left":[0,0,0,0,0,0,0,0,0,0,0,0,0,0,0,0,0,0,0,0,0,0,0,0,0,0,0,0,0,0,0,0,0,0,0,0,0,0,0,0,0,0,0,0,0,0,0,0,0,0,0,0,0,0,0,0,0,0,0,0,0,0,0,0,0,0,0,0,0,0,0,0,0,0,0,0,0,0,0,0,0,0,0,0,0,0,0,0,0,0,0,0,0,0,0,0,0,0,0],"id":12,"left_children":[1,3,5,7,9,11,13,15,17,19,21,23,25,27,29,31,33,35,37,-1,39,41,43,45,47,49,-1,51,-1,53,55,57,-1,59,-1,61,63,65,67,69,71,73,75,77,-1,79,81,83,85,-1,87,89,91,93,95,-1,97,-1,-1,-1,-1,-1,-1,-1,-1,-1,-1,-1,-1,-1,-1,-1,-1,-1,-1,-1,-1,-1,-1,-1,-1,-1,-1,-1,-1,-1,-1,-1,-1,-1,-1,-1,-1,-1,-1,-1,-1,-1,-1],"loss_changes":[2.1156637E4,9.097715E2,1.504165E3,1.3335938E2,1.5433679E2,1.7389606E2,1.589834E2,3.0825928E1,1.5688477E1,4.4030693E1,7.5785645E1,1.8945105E2,8.643463E0,5.8300537E1,1.9293945E1,2.3307495E0,3.4822754E1,8.917969E0,5.7056274E0,0E0,2.7310358E1,3.5382446E1,3.5340355E1,5.7557632E1,8.17663E1,1.4150238E-1,0E0,3.5707275E1,0E0,7.35083E0,5.811035E0,4.4039917E-1,0E0,3.5526184E1,0E0,2.0079346E0,4.173828E0,2.3339233E0,8.712822E0,1.3984287E1,2.386244E1,3.2190277E1,1.8388733E1,2.4355423E1,0E0,1.1038116E1,4.4670025E1,3.9663513E1,4.3667618E1,0E0,2.8347173E0,1.5417969E1,1.5736908E1,5.147217E0,3.9199219E0,0E0,1.0874023E0,0E0,0E0,0E0,0E0,0E0,0E0,0E0,0E0,0E0,0E0,0E0,0E0,0E0,0E0,0E0,0E0,0E0,0E0,0E0,0E0,0E0,0E0,0E0,0E0,0E0,0E0,0E0,0E0,0E0,0E0,0E0,0E0,0E0,0E0,0E0,0E0,0E0,0E0,0E0,0E0,0E0,0E0],"parents":[2147483647,0,0,1,1,2,2,3,3,4,4,5,5,6,6,7,7,8,8,9,9,10,10,11,11,12,12,13,13,14,14,15,15,16,16,17,17,18,18,20,20,21,21,22,22,23,23,24,24,25,25,27,27,29,29,30,30,31,31,33,33,35,35,36,36,37,37,38,38,39,39,40,40,41,41,42,42,43,43,45,45,46,46,47,47,48,48,50,50,51,51,52,52,53,53,54,54,56,56],"right_children":[2,4,6,8,10,12,14,16,18,20,22,24,26,28,30,32,34,36,38,-1,40,42,44,46,48,50,-1,52,-1,54,56,58,-1,60,-1,62,64,66,68,70,72,74,76,78,-1,80,82,84,86,-1,88,90,92,94,96,-1,98,-1,-1,-1,-1,-1,-1,-1,-1,-1,-1,-1,-1,-1,-1,-1,-1,-1,-1,-1,-1,-1,-1,-1,-1,-1,-1,-1,-1,-1,-1,-1,-1,-1,-1,-1,-1,-1,-1,-1,-1,-1,-1],"split_conditions":[3E0,1E0,8E0,5E0,3.11545E-1,1.2633333E1,1.37E1,3.3333335E-2,6.166667E-1,1.6666668E-2,2.2666667E0,4.7166667E0,1.6333333E0,1.8633333E1,1.975E1,9.966666E0,5.8333335E0,1.4E1,9.4319E-1,6.849431E-2,-3.9097935E-1,6E-1,7.866667E0,1.6666668E-2,7.189885E-1,7.866667E0,-2.5265863E-2,1.5710204E0,7.796693E-2,5.0689656E-1,1.5E1,1.0786806E2,4.2354787E-4,4.5666666E0,6.888763E-2,6.1282587E0,2.6333334E0,2.06E1,3.8333333E0,-4.8537254E0,1.6E1,7.0333333E0,2.6333334E0,6.6E0,6.9123425E-2,-2.1906666E1,1.6E1,1.6E0,5.616667E0,7.1919166E-2,1.29E1,8E-1,9E0,1.5710204E0,2.5881038E0,1.2199588E-2,4.9617534E0,6.721623E-2,1.5504762E-2,4.332875E-2,4.0818416E-3,5.89179E-2,-1.8294201E-3,6.596715E-2,5.892648E-2,5.860394E-2,-5.879439E-3,5.081593E-2,1.1632873E-2,3.7054278E-2,1.135134E-2,8.212994E-3,-1.4048353E-2,3.0386237E-2,6.8032615E-2,5.129224E-2,3.529969E-2,1.8282307E-2,-2.4296938E-2,-6.64898E-3,-2.679337E-2,7.5711445E-3,-3.7106737E-2,-3.4984723E-2,-5.888902E-2,-9.349584E-3,-2.9548828E-2,-1.8474586E-2,6.12168E-2,-5.1129587E-2,-6.2282242E-2,-4.6492048E-2,-2.9256353E-2,-6.091511E-2,-5.2830137E-2,-3.1095332E-2,-6.6563725E-2,-6.860158E-2,-6.505397E-2],"split_indices":[0,0,0,4,10,1,0,1,0,1,0,1,9,1,1,2,1,5,15,0,12,9,1,2,10,2,0,10,0,14,0,13,0,1,0,10,1,9,1,15,17,1,1,1,0,15,5,9,0,0,1,9,16,10,13,0,15,0,0,0,0,0,0,0,0,0,0,0,0,0,0,0,0,0,0,0,0,0,0,0,0,0,0,0,0,0,0,0,0,0,0,0,0,0,0,0,0,0,0],"split_type":[0,0,0,0,0,0,0,0,0,0,0,0,0,0,0,0,0,0,0,0,0,0,0,0,0,0,0,0,0,0,0,0,0,0,0,0,0,0,0,0,0,0,0,0,0,0,0,0,0,0,0,0,0,0,0,0,0,0,0,0,0,0,0,0,0,0,0,0,0,0,0,0,0,0,0,0,0,0,0,0,0,0,0,0,0,0,0,0,0,0,0,0,0,0,0,0,0,0,0],"sum_hessian":[2.1574951E4,1.059211E4,1.0982841E4,7.3304663E3,3.2616445E3,3.21061E3,7.7722305E3,1.5016194E3,5.8288467E3,8.215159E2,2.4401284E3,3.1544849E3,5.6125374E1,2.4370715E3,5.3351587E3,1.779336E2,1.3236858E3,5.094355E3,7.3449164E2,2.9580984E1,7.9193494E2,1.8761201E3,5.6400836E2,1.0590059E3,2.095479E3,5.413331E1,1.992067E0,2.4290415E3,8.030109E0,1.9454827E3,3.389676E3,1.7659557E2,1.3380324E0,1.1947543E3,1.2893155E2,6.864921E2,4.4078633E3,6.140555E2,1.2043617E2,2.1770775E2,5.7422723E2,9.6988715E2,9.0623303E2,5.323608E2,3.1647594E1,3.3892453E2,7.200813E2,1.00930896E3,1.08617E3,5.082605E1,3.3072567E0,1.869718E3,5.593234E2,1.3021887E3,6.4329395E2,1.9873246E0,3.3876887E3,1.7549065E2,1.1049166E0,1.133776E3,6.0978226E1,6.8518854E2,1.3036091E0,4.088734E3,3.1912906E2,6.128235E2,1.2319943E0,1.0320556E2,1.7230616E1,9.225524E1,1.2545251E2,4.0390674E2,1.703205E2,9.0946387E2,6.0423256E1,6.408693E2,2.653637E2,4.971978E2,3.5162983E1,9.5311554E1,2.4361298E2,6.5995294E2,6.0128315E1,7.826932E2,2.2661581E2,4.8191916E2,6.0425085E2,1.1480587E0,2.159198E0,1.4372218E3,4.3249615E2,3.189221E2,2.4040132E2,9.663497E2,3.358391E2,1.0454271E1,6.3283966E2,2.6429626E3,7.44726E2],"tree_param":{"num_deleted":"0","num_feature":"23","num_nodes":"99","size_leaf_vector":"1"}},{"base_weights":[3.8592434E-3,9.052742E-1,-1.0221735E0,1.1761596E0,4.3110645E-1,-5.5977315E-1,-1.21676E0,8.9445114E-1,1.2417996E0,6.8585193E-1,1.805788E-1,-5.843208E-1,7.436395E-2,-1.0769006E0,-1.3082656E0,6.58573E-2,8.367182E-1,1.2717531E0,1.1214061E0,2.6799217E-1,7.8993887E-1,1.3596106E-1,7.0097886E-2,-4.2670602E-1,-7.946881E-1,-1.0802904E0,7.005185E-2,-1.2697219E0,-1.3544677E0,4.6098375E-1,9.0677094E-1,1.2053446E0,1.303221E0,5.3106767E-1,1.1318371E0,2.2626708E-1,6.391431E-2,9.365721E-1,6.6689825E-1,2.6116332E-1,-1.7230856E-1,-4.5430592E-1,1.5152822E0,-7.463958E-1,-1.1605594E0,-1.0371568E0,-1.2726002E0,-1.2162884E0,-1.3157521E0,-1.8049013E-3,-6.779119E-2,1.5548887E-2,6.600444E-2,4.3500535E-2,6.709383E-2,5.3790998E-2,6.120792E-2,6.517615E-2,1.2972052E-2,4.268695E-2,-1.951614E-2,5.5192865E-2,6.7079715E-2,2.441043E-3,2.0169443E-2,2.9940734E-2,5.196311E-2,2.9637141E-2,6.783594E-2,-6.1520636E-3,2.0564113E-2,-3.671792E-3,-5.193264E-2,-2.7904494E-2,-6.5793344E-3,8.0740176E-2,2.2020195E-2,-2.6773993E-2,-4.1560184E-2,-3.248884E-2,-6.161926E-2,-4.5056682E-2,-5.497379E-2,-6.390287E-2,1.01526E-2,-6.4143084E-2,-5.5951502E-2,-6.615179E-2,-2.6232872E-2],"categories":[],"categories_nodes":[],"categories_segments":[],"categories_sizes":[],"default_left":[0,0,0,0,0,0,0,0,0,0,0,0,0,0,0,0,0,0,0,0,0,0,0,0,0,0,0,0,0,0,0,0,0,0,0,0,0,0,0,0,0,0,0,0,0,0,0,0,0,0,0,0,0,0,0,0,0,0,0,0,0,0,0,0,0,0,0,0,0,0,0,0,0,0,0,0,0,0,0,0,0,0,0,0,0,0,0,0,0],"id":13,"left_children":[1,3,5,7,9,11,13,15,17,19,21,23,-1,25,27,-1,29,31,33,35,37,39,-1,41,43,45,-1,47,49,51,53,55,57,59,61,63,-1,65,67,69,71,73,75,77,79,81,83,85,87,-1,-1,-1,-1,-1,-1,-1,-1,-1,-1,-1,-1,-1,-1,-1,-1,-1,-1,-1,-1,-1,-1,-1,-1,-1,-1,-1,-1,-1,-1,-1,-1,-1,-1,-1,-1,-1,-1,-1,-1],"loss_changes":[1.9488395E4,1.4402354E3,8.859912E2,1.3088086E2,2.6024988E2,1.4762738E2,8.734277E1,3.1903076E1,1.9442383E1,8.775421E1,1.1197505E2,9.537366E1,0E0,2.4599121E1,5.7373047E0,0E0,3.0975098E1,8.09668E0,6.5499268E0,1.677668E1,2.857898E1,7.672899E1,0E0,8.925473E1,2.0959229E1,2.1452148E1,0E0,4.054199E0,3.3293457E0,2.4005215E1,1.48949585E1,2.340088E0,6.4746094E-1,6.888052E0,5.2113037E0,1.2237818E1,0E0,2.4907104E1,4.439572E1,8.156829E1,4.9131733E1,5.452066E1,1.7904778E0,1.9124146E1,4.4172974E0,1.80625E1,4.274109E0,5.538574E0,6.3515625E0,0E0,0E0,0E0,0E0,0E0,0E0,0E0,0E0,0E0,0E0,0E0,0E0,0E0,0E0,0E0,0E0,0E0,0E0,0E0,0E0,0E0,0E0,0E0,0E0,0E0,0E0,0E0,0E0,0E0,0E0,0E0,0E0,0E0,0E0,0E0,0E0,0E0,0E0,0E0,0E0],"parents":[2147483647,0,0,1,1,2,2,3,3,4,4,5,5,6,6,7,7,8,8,9,9,10,10,11,11,13,13,14,14,16,16,17,17,18,18,19,19,20,20,21,21,23,23,24,24,25,25,27,27,28,28,29,29,30,30,31,31,32,32,33,33,34,34,35,35,37,37,38,38,39,39,40,40,41,41,42,42,43,43,44,44,45,45,46,46,47,47,48,48],"right_children":[2,4,6,8,10,12,14,16,18,20,22,24,-1,26,28,-1,30,32,34,36,38,40,-1,42,44,46,-1,48,50,52,54,56,58,60,62,64,-1,66,68,70,72,74,76,78,80,82,84,86,88,-1,-1,-1,-1,-1,-1,-1,-1,-1,-1,-1,-1,-1,-1,-1,-1,-1,-1,-1,-1,-1,-1,-1,-1,-1,-1,-1,-1,-1,-1,-1,-1,-1,-1,-1,-1,-1,-1,-1,-1],"split_conditions":[4E0,1E0,9.166667E0,8E0,2E0,1.4033334E1,1.62E1,1.6666668E-2,1.4833333E0,4E0,9E0,6.633333E0,7.436395E-2,2.1416666E1,2.375E1,6.58573E-2,3E0,2.6E0,3E0,6.712329E-1,1.6166667E0,3.7166667E0,7.0097886E-2,1.1416667E1,7.9346424E-1,2.3E1,7.005185E-2,3.5E-1,1.9E1,5.3333335E0,5.8333335E0,1.1316667E1,1.5719565E1,3.2E0,6E0,3.2021236E0,6.391431E-2,6E-1,6.983333E0,1.6666668E-2,8.442844E-1,7E0,6.45E0,-4.287375E-1,-8.660254E-1,-2.2987755E-1,1.2E1,3E0,3.456333E1,-1.8049013E-3,-6.779119E-2,1.5548887E-2,6.600444E-2,4.3500535E-2,6.709383E-2,5.3790998E-2,6.120792E-2,6.517615E-2,1.2972052E-2,4.268695E-2,-1.951614E-2,5.5192865E-2,6.7079715E-2,2.441043E-3,2.0169443E-2,2.9940734E-2,5.196311E-2,2.9637141E-2,6.783594E-2,-6.1520636E-3,2.0564113E-2,-3.671792E-3,-5.193264E-2,-2.7904494E-2,-6.5793344E-3,8.0740176E-2,2.2020195E-2,-2.6773993E-2,-4.1560184E-2,-3.248884E-2,-6.161926E-2,-4.5056682E-2,-5.497379E-2,-6.390287E-2,1.01526E-2,-6.4143084E-2,-5.5951502E-2,-6.615179E-2,-2.6232872E-2],"split_indices":[0,0,0,5,0,1,0,1,1,6,1,0,0,1,1,0,5,7,16,14,1,1,0,1,14,6,0,14,0,1,1,3,15,1,1,13,0,7,1,2,14,2,2,12,18,12,16,6,15,0,0,0,0,0,0,0,0,0,0,0,0,0,0,0,0,0,0,0,0,0,0,0,0,0,0,0,0,0,0,0,0,0,0,0,0,0,0,0,0],"split_type":[0,0,0,0,0,0,0,0,0,0,0,0,0,0,0,0,0,0,0,0,0,0,0,0,0,0,0,0,0,0,0,0,0,0,0,0,0,0,0,0,0,0,0,0,0,0,0,0,0,0,0,0,0,0,0,0,0,0,0,0,0,0,0,0,0,0,0,0,0,0,0,0,0,0,0,0,0,0,0,0,0,0,0,0,0,0,0,0,0],"sum_hessian":[2.106924E4,1.1215791E4,9.853448E3,7.137027E3,4.078764E3,2.919545E3,6.9339033E3,1.3514811E3,5.785546E3,2.0214963E3,2.0572676E3,2.8856555E3,3.388937E1,2.7474304E3,4.186473E3,1.597859E2,1.1916952E3,4.6252407E3,1.160305E3,4.0384088E2,1.6176554E3,1.9858351E3,7.1432495E1,1.6513976E3,1.2342579E3,2.7442405E3,3.1900148E0,2.2979277E3,1.8885453E3,1.884588E2,1.0032364E3,1.4996813E3,3.1255596E3,2.1047354E1,1.1392577E3,3.889992E2,1.4841693E1,7.350502E2,8.826052E2,1.4123633E3,5.7347186E2,1.6290118E3,2.2385761E1,1.0930266E3,1.4123132E2,2.2467134E3,4.9752704E2,1.0761383E3,1.2217894E3,1.9689617E0,1.8865764E3,1.6160359E2,2.6855198E1,9.2784607E2,7.539029E1,1.9758495E2,1.3020963E3,3.1244065E3,1.1531845E0,1.5642697E1,5.404657E0,1.0107012E3,1.2855649E2,1.9495885E2,1.9404036E2,1.7296931E2,5.620809E2,7.986138E2,8.399143E1,3.9685608E2,1.01550714E3,5.157015E2,5.7770374E1,1.2320614E3,3.9695044E2,2.0028997E1,2.3567646E0,3.1555646E2,7.7747015E2,1.865E1,1.2258132E2,7.107728E2,1.5359407E3,4.958273E2,1.6997198E0,6.316115E2,4.4452673E2,1.2099769E3,1.1812467E1],"tree_param":{"num_deleted":"0","num_feature":"23","num_nodes":"89","size_leaf_vector":"1"}},{"base_weights":[2.955666E-3,8.798648E-1,-9.911529E-1,1.1554139E0,4.0362749E-1,-5.3865397E-1,-1.1878964E0,8.4692097E-1,1.214844E0,6.4259464E-1,1.6501257E-1,-3.269231E-1,-7.090469E-1,-1.0472388E0,-1.2714845E0,6.483885E-2,7.7671367E-1,1.2470944E0,1.0921E0,2.507069E-1,7.517125E-1,-8.629791E-2,3.3802176E-1,-2.563234E-1,-8.668967E-1,-8.097256E-1,-3.8541213E-1,-1.1052454E0,-8.5599476E-1,-1.2116288E0,-1.3117157E0,4.5477104E-1,8.4926844E-1,1.1423018E0,1.2681123E0,4.8295656E-1,1.098933E0,1.3824637E-1,7.248215E-1,5.3532994E-1,8.617559E-1,1.1725412E-2,-7.7710974E-1,-3.0758675E-2,4.4193125E-1,-3.651645E-1,1.3813117E-2,-1.1997715E0,-5.188287E-1,-6.3717705E-1,-9.0938854E-1,1.4247538E0,-4.1090426E-1,-9.372806E-1,-1.1504476E0,-7.393887E-1,-1.0914927E0,-1.1589799E0,-1.2921232E0,-1.2806883E0,-6.684994E-2,-2.1629302E-2,2.6267514E-2,4.3859247E-2,1.6314542E-2,5.9039157E-2,5.24622E-2,6.166473E-2,6.429692E-2,-1.1329398E-2,3.879442E-2,5.578467E-2,4.1023098E-2,4.8461547E-3,6.176142E-2,3.851847E-2,-2.3842385E-2,3.0332956E-2,6.9797174E-3,4.8425715E-2,3.7011817E-2,-1.8365551E-3,6.835374E-2,-5.0877012E-2,-5.2239685E-3,1.5567377E-2,-1.507654E-2,8.051682E-3,2.5611151E-2,-1.9488856E-2,7.080185E-2,-2.3763064E-2,6.7652347E-3,-6.312912E-2,1.589513E-2,-5.1918062E-3,-4.732744E-2,-2.9444113E-2,-5.847442E-2,-5.284203E-2,-3.841061E-2,8.1063285E-2,1.9680208E-2,-2.7709156E-2,-7.145238E-3,-5.1141966E-2,-3.3113047E-2,-5.1380515E-2,-6.093465E-2,-3.7710313E-2,9.51506E-2,-9.597087E-3,-5.7279117E-2,-6.0461354E-2,-5.234198E-2,-1.818627E-2,-6.528787E-2,-6.2219273E-2,-6.681538E-2],"categories":[],"categories_nodes":[],"categories_segments":[],"categories_sizes":[],"default_left":[0,0,0,0,0,0,0,0,0,0,0,0,0,0,0,0,0,0,0,0,0,0,0,0,0,0,0,0,0,0,0,0,0,0,0,0,0,0,0,0,0,0,0,0,0,0,0,0,0,0,0,0,0,0,0,0,0,0,0,0,0,0,0,0,0,0,0,0,0,0,0,0,0,0,0,0,0,0,0,0,0,0,0,0,0,0,0,0,0,0,0,0,0,0,0,0,0,0,0,0,0,0,0,0,0,0,0,0,0,0,0,0,0,0,0,0,0,0,0],"id":14,"left_children":[1,3,5,7,9,11,13,15,17,19,21,23,25,27,29,-1,31,33,35,37,39,41,43,45,47,49,51,53,55,57,59,61,63,65,67,69,71,73,75,77,79,81,83,85,87,89,91,93,95,97,99,101,103,105,107,109,111,113,115,117,-1,-1,-1,-1,-1,-1,-1,-1,-1,-1,-1,-1,-1,-1,-1,-1,-1,-1,-1,-1,-1,-1,-1,-1,-1,-1,-1,-1,-1,-1,-1,-1,-1,-1,-1,-1,-1,-1,-1,-1,-1,-1,-1,-1,-1,-1,-1,-1,-1,-1,-1,-1,-1,-1,-1,-1,-1,-1,-1],"loss_changes":[1.8069414E4,1.4447539E3,8.642285E2,1.2686719E2,2.3015314E2,1.06043274E2,7.8265625E1,3.468579E1,2.1783203E1,8.607251E1,8.793959E1,4.9923294E1,5.284247E1,2.7111084E1,8.625E0,0E0,2.2506409E1,8.734863E0,4.5664062E0,2.3405542E1,3.709857E1,5.5887672E1,4.590959E1,3.425003E1,1.695134E1,2.0802368E1,1.8535217E1,1.3629639E1,1.5478149E1,5.7839355E0,2.685547E-1,1.1650894E1,1.1373901E1,1.5629272E0,7.988281E-1,3.3701835E0,4.7333984E0,1.6088968E1,4.9806023E0,1.5000137E1,1.2826843E1,4.7575485E1,1.6479172E1,2.4569572E1,1.836876E1,3.6950203E1,1.99972E1,7.71949E0,1.3375536E1,1.1100067E1,1.5545959E1,5.0183105E-1,1.4679749E1,9.115356E0,1.1506592E1,1.7086792E1,9.233917E0,4.6417236E0,8.015015E0,6.739502E-1,0E0,0E0,0E0,0E0,0E0,0E0,0E0,0E0,0E0,0E0,0E0,0E0,0E0,0E0,0E0,0E0,0E0,0E0,0E0,0E0,0E0,0E0,0E0,0E0,0E0,0E0,0E0,0E0,0E0,0E0,0E0,0E0,0E0,0E0,0E0,0E0,0E0,0E0,0E0,0E0,0E0,0E0,0E0,0E0,0E0,0E0,0E0,0E0,0E0,0E0,0E0,0E0,0E0,0E0,0E0,0E0,0E0,0E0,0E0],"parents":[2147483647,0,0,1,1,2,2,3,3,4,4,5,5,6,6,7,7,8,8,9,9,10,10,11,11,12,12,13,13,14,14,16,16,17,17,18,18,19,19,20,20,21,21,22,22,23,23,24,24,25,25,26,26,27,27,28,28,29,29,30,30,31,31,32,32,33,33,34,34,35,35,36,36,37,37,38,38,39,39,40,40,41,41,42,42,43,43,44,44,45,45,46,46,47,47,48,48,49,49,50,50,51,51,52,52,53,53,54,54,55,55,56,56,57,57,58,58,59,59],"right_children":[2,4,6,8,10,12,14,16,18,20,22,24,26,28,30,-1,32,34,36,38,40,42,44,46,48,50,52,54,56,58,60,62,64,66,68,70,72,74,76,78,80,82,84,86,88,90,92,94,96,98,100,102,104,106,108,110,112,114,116,118,-1,-1,-1,-1,-1,-1,-1,-1,-1,-1,-1,-1,-1,-1,-1,-1,-1,-1,-1,-1,-1,-1,-1,-1,-1,-1,-1,-1,-1,-1,-1,-1,-1,-1,-1,-1,-1,-1,-1,-1,-1,-1,-1,-1,-1,-1,-1,-1,-1,-1,-1,-1,-1,-1,-1,-1,-1,-1,-1],"split_conditions":[3.95E0,1E0,9.166667E0,7E0,2E0,6E0,1.5933333E1,1E0,5E-1,2.619065E-1,5.9528154E-1,1E1,1.5710204E0,1.5710204E0,2.0833334E1,6.483885E-2,3E0,1.5E1,7.774812E-2,1.8166667E0,1.1E1,1.9E1,1.3E1,1.5710204E0,4.3976805E-1,1.662561E1,1.5998771E0,5E0,4.814815E-1,5.0689656E-1,2.4083334E1,2.2108443E0,2.4982727E1,7.124693E-1,3.8E1,9.673333E1,4.2E0,1E0,2.4333601E1,7.866667E0,5.9375E-1,1E0,9E0,-1.9186006E-1,8E0,9.3333334E-1,1.9314846E1,1.1E1,8.518184E-1,8.034351E-1,-1.8369701E-16,3.102262E-1,4E0,4.6858356E1,3.398693E-1,2.5169264E1,-3.3185904E0,3.890515E1,2.5881038E0,5.0689656E-1,-6.684994E-2,-2.1629302E-2,2.6267514E-2,4.3859247E-2,1.6314542E-2,5.9039157E-2,5.24622E-2,6.166473E-2,6.429692E-2,-1.1329398E-2,3.879442E-2,5.578467E-2,4.1023098E-2,4.8461547E-3,6.176142E-2,3.851847E-2,-2.3842385E-2,3.0332956E-2,6.9797174E-3,4.8425715E-2,3.7011817E-2,-1.8365551E-3,6.835374E-2,-5.0877012E-2,-5.2239685E-3,1.5567377E-2,-1.507654E-2,8.051682E-3,2.5611151E-2,-1.9488856E-2,7.080185E-2,-2.3763064E-2,6.7652347E-3,-6.312912E-2,1.589513E-2,-5.1918062E-3,-4.732744E-2,-2.9444113E-2,-5.847442E-2,-5.284203E-2,-3.841061E-2,8.1063285E-2,1.9680208E-2,-2.7709156E-2,-7.145238E-3,-5.1141966E-2,-3.3113047E-2,-5.1380515E-2,-6.093465E-2,-3.7710313E-2,9.51506E-2,-9.597087E-3,-5.7279117E-2,-6.0461354E-2,-5.234198E-2,-1.818627E-2,-6.528787E-2,-6.2219273E-2,-6.681538E-2],"split_indices":[0,0,0,5,0,0,0,3,0,10,10,5,10,10,0,0,5,5,10,2,6,5,3,10,10,11,10,16,14,14,0,13,15,12,5,3,15,14,11,2,14,14,16,12,6,14,13,16,10,14,19,12,22,13,14,11,12,13,13,14,0,0,0,0,0,0,0,0,0,0,0,0,0,0,0,0,0,0,0,0,0,0,0,0,0,0,0,0,0,0,0,0,0,0,0,0,0,0,0,0,0,0,0,0,0,0,0,0,0,0,0,0,0,0,0,0,0,0,0],"split_type":[0,0,0,0,0,0,0,0,0,0,0,0,0,0,0,0,0,0,0,0,0,0,0,0,0,0,0,0,0,0,0,0,0,0,0,0,0,0,0,0,0,0,0,0,0,0,0,0,0,0,0,0,0,0,0,0,0,0,0,0,0,0,0,0,0,0,0,0,0,0,0,0,0,0,0,0,0,0,0,0,0,0,0,0,0,0,0,0,0,0,0,0,0,0,0,0,0,0,0,0,0,0,0,0,0,0,0,0,0,0,0,0,0,0,0,0,0,0,0],"sum_hessian":[2.0725916E4,1.1012149E4,9.713768E3,6.97501E3,4.0371392E3,2.944749E3,6.7690186E3,1.1291276E3,5.8458823E3,2.0162351E3,2.0209042E3,1.3143955E3,1.6303535E3,2.5282097E3,4.240809E3,1.5007094E2,9.790566E2,4.622247E3,1.2236353E3,4.3984964E2,1.5763855E3,8.24194E2,1.1967102E3,1.163718E3,1.5067746E2,1.2423671E3,3.879865E2,1.9361685E3,5.920413E2,1.7171545E3,2.5236543E3,1.8140176E2,7.9765485E2,7.814403E2,3.8408066E3,1.4368796E1,1.2092665E3,3.5656387E2,8.328579E1,5.334018E2,1.0429836E3,7.226377E2,1.0155625E2,2.6322266E2,9.3348755E2,8.292514E2,3.344666E2,7.576893E1,7.490854E1,4.5756635E2,7.848007E2,4.6257734E0,3.8336072E2,4.1517593E2,1.5209926E3,3.9874408E2,1.9329726E2,1.0474493E3,6.697052E2,1.1562968E3,1.3673575E3,1.2987491E1,1.6841428E2,7.565908E2,4.1064007E1,5.445632E2,2.3687717E2,1.3243339E3,2.516473E3,4.26486E0,1.0103936E1,1.13778E3,7.1486435E1,3.4466858E2,1.1895299E1,8.0590034E1,2.6957502E0,4.5149017E2,8.191166E1,5.5150275E2,4.9148096E2,6.9863306E2,2.4004662E1,7.443634E1,2.711991E1,1.1622662E2,1.4699602E2,1.8749939E2,7.4598816E2,8.1871954E2,1.053189E1,6.59734E1,2.6849323E2,7.291916E1,2.849766E0,3.8650715E1,3.6257824E1,4.2143713E2,3.612924E1,3.8069598E2,4.041047E2,3.4046423E0,1.2211308E0,2.491118E2,1.3424893E2,3.145883E2,1.0058767E2,5.489588E2,9.7203375E2,3.9723114E2,1.5129373E0,1.1221644E1,1.8207562E2,7.165834E2,3.3086606E2,1.0093337E1,6.596118E2,7.137816E2,4.4251517E2],"tree_param":{"num_deleted":"0","num_feature":"23","num_nodes":"119","size_leaf_vector":"1"}},{"base_weights":[3.2202424E-3,-9.933436E-1,7.644973E-1,6.368089E-2,-1.0294428E0,2.8612506E-1,1.0612947E0,-1.1776787E0,-6.502334E-1,6.097453E-1,1.298125E-1,1.1555153E0,5.813822E-1,-1.0606695E0,-1.2544273E0,-6.7590326E-1,1.3844817E0,2.9236087E-1,7.283801E-1,6.0861092E-2,1.2851835E0,1.2004982E0,9.38579E-1,9.50487E-1,-8.250257E-2,-1.1098633E0,-9.021722E-1,-1.2023102E0,-6.451697E-2,-8.3808553E-1,-5.13348E-1,1.51773E0,-3.1071931E-2,4.774679E-2,4.8035377E-1,8.679385E-1,4.8200145E-1,-2.2109802E-1,2.3314752E-1,6.730311E-2,3.212789E-1,1.0690292E0,1.2378296E0,1.1073565E0,7.12292E-1,8.8121176E-1,6.501036E-2,7.399223E-2,-9.3773293E-1,-4.6665188E-2,-5.8022488E-2,-5.341488E-2,-3.4486577E-2,-6.153009E-2,-5.4701157E-2,-3.8048517E-2,-5.7782423E-2,-1.6087385E-2,-3.289047E-2,7.815086E-2,2.5626296E-2,-2.2813552E-3,2.5885565E-2,3.0664468E-2,1.3100982E-2,4.401295E-2,-6.777725E-2,7.012305E-3,3.1877775E-2,-1.4085146E-3,-2.2289978E-2,2.3330657E-2,3.6340249E-3,-3.783635E-2,6.2293686E-2,5.3971924E-2,3.4645546E-2,5.880753E-2,6.315486E-2,4.7446765E-2,5.8618903E-2,3.7983816E-2,-4.24391E-2,4.6987575E-2,2.2570832E-2,9.520702E-3,-3.2018874E-2,-6.0272384E-2,-1.8199056E-2],"categories":[],"categories_nodes":[],"categories_segments":[],"categories_sizes":[],"default_left":[0,0,0,0,0,0,0,0,0,0,0,0,0,0,0,0,0,0,0,0,0,0,0,0,0,0,0,0,0,0,0,0,0,0,0,0,0,0,0,0,0,0,0,0,0,0,0,0,0,0,0,0,0,0,0,0,0,0,0,0,0,0,0,0,0,0,0,0,0,0,0,0,0,0,0,0,0,0,0,0,0,0,0,0,0,0,0,0,0],"id":15,"left_children":[1,3,5,-1,7,9,11,13,15,17,19,21,23,25,27,29,31,33,35,37,39,41,43,45,47,49,51,53,-1,55,57,59,-1,61,63,65,67,69,71,-1,73,75,77,79,81,83,-1,85,87,-1,-1,-1,-1,-1,-1,-1,-1,-1,-1,-1,-1,-1,-1,-1,-1,-1,-1,-1,-1,-1,-1,-1,-1,-1,-1,-1,-1,-1,-1,-1,-1,-1,-1,-1,-1,-1,-1,-1,-1],"loss_changes":[1.537303E4,7.194629E2,1.6307305E3,0E0,4.848291E2,2.2249014E2,3.198745E2,5.4432617E1,1.2785986E2,5.3733704E1,2.3637294E2,5.668799E1,2.8564676E2,1.822705E1,5.4570312E0,6.2854248E1,9.123066E0,1.7980415E1,3.5418274E1,1.3616542E2,9.373566E0,2.2742676E1,3.8247192E1,1.7001404E1,5.5924507E1,1.5687012E1,2.0066406E1,3.3781738E0,0E0,2.8507935E1,3.304251E1,5.185318E-1,0E0,7.538018E0,6.261219E0,1.9386047E1,2.0065804E1,4.608055E1,6.514257E1,0E0,1.2146642E1,3.5264893E0,4.456543E0,4.899414E0,3.3151596E1,1.5384064E1,0E0,2.9538872E1,9.487957E0,0E0,0E0,0E0,0E0,0E0,0E0,0E0,0E0,0E0,0E0,0E0,0E0,0E0,0E0,0E0,0E0,0E0,0E0,0E0,0E0,0E0,0E0,0E0,0E0,0E0,0E0,0E0,0E0,0E0,0E0,0E0,0E0,0E0,0E0,0E0,0E0,0E0,0E0,0E0,0E0],"parents":[2147483647,0,0,1,1,2,2,4,4,5,5,6,6,7,7,8,8,9,9,10,10,11,11,12,12,13,13,14,14,15,15,16,16,17,17,18,18,19,19,20,20,21,21,22,22,23,23,24,24,25,25,26,26,27,27,29,29,30,30,31,31,33,33,34,34,35,35,36,36,37,37,38,38,40,40,41,41,42,42,43,43,44,44,45,45,47,47,48,48],"right_children":[2,4,6,-1,8,10,12,14,16,18,20,22,24,26,28,30,32,34,36,38,40,42,44,46,48,50,52,54,-1,56,58,60,-1,62,64,66,68,70,72,-1,74,76,78,80,82,84,-1,86,88,-1,-1,-1,-1,-1,-1,-1,-1,-1,-1,-1,-1,-1,-1,-1,-1,-1,-1,-1,-1,-1,-1,-1,-1,-1,-1,-1,-1,-1,-1,-1,-1,-1,-1,-1,-1,-1,-1,-1,-1],"split_conditions":[1E0,1.6666668E-2,4E0,6.368089E-2,1E0,2E0,2.6333334E0,1.7816668E1,1.4633333E1,1.6666668E-2,9.416667E0,1.4833333E0,1.5E0,1.5710204E0,2.225E1,7.3484695E-1,3.7E1,1.5763415E0,6.633333E0,1.5928324E1,4.766667E0,3E1,1.0166667E0,6.4E0,2.9E1,5E0,9E0,4.9617534E0,-6.451697E-2,4.3E1,7.65E0,9.75E0,-3.1071931E-2,8.660254E-1,-7.1222224E0,1.038247E1,8E0,3.95E0,3.6E0,6.730311E-2,1E1,2.201E1,1.5E1,1.4E1,5.7E1,1.1833333E0,6.501036E-2,8.5714287E-1,-1.8369701E-16,-4.6665188E-2,-5.8022488E-2,-5.341488E-2,-3.4486577E-2,-6.153009E-2,-5.4701157E-2,-3.8048517E-2,-5.7782423E-2,-1.6087385E-2,-3.289047E-2,7.815086E-2,2.5626296E-2,-2.2813552E-3,2.5885565E-2,3.0664468E-2,1.3100982E-2,4.401295E-2,-6.777725E-2,7.012305E-3,3.1877775E-2,-1.4085146E-3,-2.2289978E-2,2.3330657E-2,3.6340249E-3,-3.783635E-2,6.2293686E-2,5.3971924E-2,3.4645546E-2,5.880753E-2,6.315486E-2,4.7446765E-2,5.8618903E-2,3.7983816E-2,-4.24391E-2,4.6987575E-2,2.2570832E-2,9.520702E-3,-3.2018874E-2,-6.0272384E-2,-1.8199056E-2],"split_indices":[4,1,4,0,5,1,1,1,1,2,1,1,2,10,1,10,6,13,2,13,2,6,2,1,5,16,16,15,0,6,1,2,0,20,15,10,6,1,1,0,1,15,4,5,5,2,0,14,19,0,0,0,0,0,0,0,0,0,0,0,0,0,0,0,0,0,0,0,0,0,0,0,0,0,0,0,0,0,0,0,0,0,0,0,0,0,0,0,0],"split_type":[0,0,0,0,0,0,0,0,0,0,0,0,0,0,0,0,0,0,0,0,0,0,0,0,0,0,0,0,0,0,0,0,0,0,0,0,0,0,0,0,0,0,0,0,0,0,0,0,0,0,0,0,0,0,0,0,0,0,0,0,0,0,0,0,0,0,0,0,0,0,0,0,0,0,0,0,0,0,0,0,0,0,0,0,0,0,0,0,0],"sum_hessian":[2.0261365E4,8.77456E3,1.1486805E4,1.3699915E2,8.637561E3,4.398827E3,7.087978E3,6.2085044E3,2.4290564E3,1.4317388E3,2.9670881E3,5.923598E3,1.1643802E3,2.4650964E3,3.7434077E3,2.3994526E3,2.960359E1,3.9049875E2,1.04124E3,2.8009812E3,1.6610713E2,4.902504E3,1.02109424E3,7.4804987E2,4.1633035E2,1.8766322E3,5.884642E2,1.5412134E3,2.2021943E3,1.1990243E3,1.2004285E3,2.7987804E1,1.6157854E0,1.7023935E2,2.202594E2,6.631074E2,3.7813254E2,1.0622498E3,1.7387313E3,1.558664E2,1.024074E1,1.0907772E3,3.8117266E3,5.826372E2,4.3845703E2,6.273077E2,1.20742165E2,3.527041E2,6.3626266E1,4.222656E2,1.4543666E3,3.279688E2,2.6049536E2,1.2137408E3,3.2747263E2,9.674825E2,2.3154178E2,5.174102E2,6.8301825E2,2.625023E1,1.7375736E0,1.4277527E2,2.7464083E1,1.357794E2,8.4479996E1,6.6005414E2,3.053289E0,1.18871346E2,2.592612E2,5.7213904E2,4.901107E2,7.074887E2,1.0312427E3,4.811944E0,5.428796E0,1.059583E3,3.1194168E1,1.1215453E3,2.6901814E3,1.7408437E2,4.0855286E2,4.2603857E2,1.241846E1,5.5106415E2,7.6243546E1,3.0390906E2,4.879503E1,4.2632698E1,2.099357E1],"tree_param":{"num_deleted":"0","num_feature":"23","num_nodes":"89","size_leaf_vector":"1"}},{"base_weights":[-6.177247E-5,9.0637696E-1,-8.6466026E-1,1.1103048E0,4.802614E-1,-3.1874874E-1,-1.0981117E0,8.704476E-1,1.1952962E0,1.3445543E-1,6.01909E-1,-1.04641154E-1,-5.0330657E-1,-8.8420284E-1,-1.1978797E0,6.2960476E-2,8.357535E-1,1.2148496E0,1.0165858E0,1.8795478E-1,-5.4007506E-1,7.937932E-1,4.4527712E-1,-3.1142604E-1,6.96221E-2,-6.156465E-1,-1.844264E-1,-9.511843E-1,-6.682769E-1,-1.1184753E0,-1.259074E0,5.767489E-1,9.139285E-1,1.1560161E0,1.2413468E0,1.0653629E0,8.106936E-1,3.8809612E-2,3.8659668E-1,-8.9324975E-1,2.7619013E-1,5.698387E-1,9.214729E-1,1.4528945E-1,5.308434E-1,-1.9054349E-1,-8.521003E-1,-2.8919956E-1,1.659757E-1,-5.4154044E-1,-9.475571E-1,-3.205408E-1,1.2530394E-1,-9.154351E-1,-1.2149955E0,-7.7946E-1,-3.8534027E-1,-1.0795529E0,-1.2572601E0,-1.217747E0,-6.442099E-2,2.4925767E-2,4.215766E-2,4.1112382E-2,4.8850328E-2,5.786243E-2,-1.142816E-3,6.256198E-2,5.8605324E-2,1.6501544E-2,5.4245558E-2,1.6948408E-2,4.497599E-2,-2.885541E-4,4.1422304E-2,2.7379273E-2,3.459412E-3,-3.4295663E-3,-5.460648E-2,3.3468604E-2,-7.817825E-2,4.4091444E-2,2.3331873E-2,2.1510318E-2,4.7236603E-2,1.4797749E-2,-1.10803265E-2,2.7937418E-2,-8.814716E-3,-1.998685E-2,2.3288394E-3,-2.9816994E-2,-6.228602E-2,-1.7025603E-3,-3.9247707E-2,6.6676005E-3,4.0130313E-2,7.263852E-2,-2.7505312E-2,-5.724569E-2,-3.0176604E-2,-4.231833E-2,-1.0329361E-2,-1.4795954E-2,2.9672408E-2,-4.0978473E-2,-5.0249655E-2,-6.3633375E-2,-4.121736E-2,-4.24873E-2,-2.3347719E-2,-3.8202904E-2,6.1632423E-3,-5.536555E-2,-4.9290337E-2,-6.315776E-2,-1.511737E-2,-5.9400436E-2,-6.471217E-2],"categories":[],"categories_nodes":[],"categories_segments":[],"categories_sizes":[],"default_left":[0,0,0,0,0,0,0,0,0,0,0,0,0,0,0,0,0,0,0,0,0,0,0,0,0,0,0,0,0,0,0,0,0,0,0,0,0,0,0,0,0,0,0,0,0,0,0,0,0,0,0,0,0,0,0,0,0,0,0,0,0,0,0,0,0,0,0,0,0,0,0,0,0,0,0,0,0,0,0,0,0,0,0,0,0,0,0,0,0,0,0,0,0,0,0,0,0,0,0,0,0,0,0,0,0,0,0,0,0,0,0,0,0,0,0,0,0,0,0],"id":16,"left_children":[1,3,5,7,9,11,13,15,17,19,21,23,25,27,29,-1,31,33,35,37,39,41,43,45,47,49,51,53,55,57,59,61,63,65,67,69,71,73,75,77,79,81,83,85,87,89,91,93,95,97,99,101,103,105,107,109,111,113,115,117,-1,-1,-1,-1,-1,-1,-1,-1,-1,-1,-1,-1,-1,-1,-1,-1,-1,-1,-1,-1,-1,-1,-1,-1,-1,-1,-1,-1,-1,-1,-1,-1,-1,-1,-1,-1,-1,-1,-1,-1,-1,-1,-1,-1,-1,-1,-1,-1,-1,-1,-1,-1,-1,-1,-1,-1,-1,-1,-1],"loss_changes":[1.550743E4,8.388838E2,1.2903237E3,1.3212988E2,1.3152039E2,1.19875336E2,1.5032227E2,2.204956E1,1.5610352E1,2.9527157E1,6.919446E1,5.0696785E1,5.8267426E1,3.205005E1,2.2083496E1,0E0,3.137207E1,5.3305664E0,3.9725342E0,2.2389458E1,1.7595257E1,2.9175781E1,3.268425E1,4.188306E1,2.6461166E1,2.9118744E1,1.7999516E1,1.513269E1,1.6637451E1,1.0057373E1,1.7324219E0,7.24897E0,6.185364E0,2.0057373E0,5.7421875E-1,5.1925354E0,3.7351418E0,1.5248893E1,1.6528008E1,6.852894E0,1.474555E1,1.1816399E1,7.134033E0,1.5799494E1,1.9686768E1,2.616234E1,1.1061996E1,2.047549E1,1.2414354E1,1.766269E1,1.4147614E1,1.7574606E1,2.5963116E1,1.2235107E1,3.5133057E0,8.071869E0,2.973255E1,3.2210693E0,2.18927E0,1.0754395E0,0E0,0E0,0E0,0E0,0E0,0E0,0E0,0E0,0E0,0E0,0E0,0E0,0E0,0E0,0E0,0E0,0E0,0E0,0E0,0E0,0E0,0E0,0E0,0E0,0E0,0E0,0E0,0E0,0E0,0E0,0E0,0E0,0E0,0E0,0E0,0E0,0E0,0E0,0E0,0E0,0E0,0E0,0E0,0E0,0E0,0E0,0E0,0E0,0E0,0E0,0E0,0E0,0E0,0E0,0E0,0E0,0E0,0E0,0E0],"parents":[2147483647,0,0,1,1,2,2,3,3,4,4,5,5,6,6,7,7,8,8,9,9,10,10,11,11,12,12,13,13,14,14,16,16,17,17,18,18,19,19,20,20,21,21,22,22,23,23,24,24,25,25,26,26,27,27,28,28,29,29,30,30,31,31,32,32,33,33,34,34,35,35,36,36,37,37,38,38,39,39,40,40,41,41,42,42,43,43,44,44,45,45,46,46,47,47,48,48,49,49,50,50,51,51,52,52,53,53,54,54,55,55,56,56,57,57,58,58,59,59],"right_children":[2,4,6,8,10,12,14,16,18,20,22,24,26,28,30,-1,32,34,36,38,40,42,44,46,48,50,52,54,56,58,60,62,64,66,68,70,72,74,76,78,80,82,84,86,88,90,92,94,96,98,100,102,104,106,108,110,112,114,116,118,-1,-1,-1,-1,-1,-1,-1,-1,-1,-1,-1,-1,-1,-1,-1,-1,-1,-1,-1,-1,-1,-1,-1,-1,-1,-1,-1,-1,-1,-1,-1,-1,-1,-1,-1,-1,-1,-1,-1,-1,-1,-1,-1,-1,-1,-1,-1,-1,-1,-1,-1,-1,-1,-1,-1,-1,-1,-1,-1],"split_conditions":[3E0,1E0,7.75E0,6E0,3.11545E-1,4.7166667E0,1.3383333E1,1E0,6.5E-1,3.1E1,1.6E0,6.5240353E-1,1.5710204E0,1.5710204E0,1.9666666E1,6.2960476E-2,4E0,1.4E1,2.2212307E1,1.0166667E0,-1.8369701E-16,1.2E1,1.2133333E1,1.1E1,1.3E1,7E0,1.9895287E1,2.3047812E1,9E0,1.6E1,2.3183332E1,1E1,4E0,5.4762454E0,3.3333334E-1,5.1833334E0,2.2628702E-1,2.2426157E1,1E1,1.1833333E0,2.2911535E1,8.095438E-1,1.1E1,2.1432232E1,2.1666666E1,1.6666668E-2,2.1564444E1,1.0483334E1,5.3E1,5E0,-1.8369701E-16,4E0,5E-1,1.0183333E1,6.045E1,2.112735E1,9E0,1.7669897E0,2.37E1,9E0,-6.442099E-2,2.4925767E-2,4.215766E-2,4.1112382E-2,4.8850328E-2,5.786243E-2,-1.142816E-3,6.256198E-2,5.8605324E-2,1.6501544E-2,5.4245558E-2,1.6948408E-2,4.497599E-2,-2.885541E-4,4.1422304E-2,2.7379273E-2,3.459412E-3,-3.4295663E-3,-5.460648E-2,3.3468604E-2,-7.817825E-2,4.4091444E-2,2.3331873E-2,2.1510318E-2,4.7236603E-2,1.4797749E-2,-1.10803265E-2,2.7937418E-2,-8.814716E-3,-1.998685E-2,2.3288394E-3,-2.9816994E-2,-6.228602E-2,-1.7025603E-3,-3.9247707E-2,6.6676005E-3,4.0130313E-2,7.263852E-2,-2.7505312E-2,-5.724569E-2,-3.0176604E-2,-4.231833E-2,-1.0329361E-2,-1.4795954E-2,2.9672408E-2,-4.0978473E-2,-5.0249655E-2,-6.3633375E-2,-4.121736E-2,-4.24873E-2,-2.3347719E-2,-3.8202904E-2,6.1632423E-3,-5.536555E-2,-4.9290337E-2,-6.315776E-2,-1.511737E-2,-5.9400436E-2,